#include <stdio.h>
#include "freertos/FreeRTOS.h"
#include "freertos/task.h"
#include "driver/adc.h"
#include "esp_adc/adc_oneshot.h"
#include "esp_log.h"
#include <stdlib.h>
#include <math.h>
#include <time.h>
#include <string.h>
#define INPUT_SIZE 128  
#define FILTER_SIZE 3   
#define NUM_FILTERS 8  
#define POOL_SIZE 2     
#define HIDDEN_SIZE 64  
#define OUTPUT_SIZE 1   
#define EPOCHS 20       
#define LEARNING_RATE 0.01
#define TAG "AD8232"             // Log tag
#define ADC_CHANNEL ADC_CHANNEL_0 // GPIO 36 (ADC1_CHANNEL_0)
#define LED_PIN GPIO_NUM_2 
double sigmoid(float x) {
    return 1.0 / (1.0 + exp(-x));
}

double relu(float x) {
    return fmax(0.0, x);
}

void conv1d(const float *input, short input_size, const float *filters, const float *bias, short filter_size, float *output, short num_filters) {
    int output_size = input_size - filter_size + 1;
    for (short f = 0; f < num_filters; f++) { // Duy?t t?ng b? l?c
        for (short i = 0; i < output_size; i++) { // Duy?t qua t?ng v? trí tích ch?p
            output[f * output_size + i] = bias[f]; // B?t đ?u b?ng giá tr? bias
            for (short j = 0; j < filter_size; j++) { // Th?c hi?n tích ch?p
                output[f * output_size + i] += input[i + j] * filters[f * filter_size + j];
            }
        }
    }
}

//maxpooling 1D
void maxpool1d(float *input, short input_size, short pool_size, float *output) {
    short output_size = input_size / pool_size;
    for (short i = 0; i < output_size; i++) {
        double max_val = -INFINITY;
        for (short j = 0; j < pool_size; j++) {
            max_val = fmax(max_val, input[i * pool_size + j]);
        }
        output[i] = max_val;
    }
}

float conv_filters[] = {0.281162440776824,	0.101400032639503,	0.133539095520973,
0.406164199113845,	0.475760340690612,	0.304460227489471,
-0.0611712001264095,	-0.471411556005477,	-0.221130013465881,
0.0267606619745492,	0.224356636404991,	0.481200188398361,
-0.053065400570631,	0.0910261273384094,	-0.407084703445434,
0.276633441448211,	-0.119085021317005,	-0.556982159614562,
0.312289267778396,	-0.296818614006042,	-0.140557438135147,
-0.216221556067466,	0.129624441266059,	-0.429750353097915,
};

float conv_bias[] = {0.042408712,	-0.007188134,	-0.010489861,	0.021003149,	0.038407713,	0.023822814,	0.062468749,	0.019722907
};

float dense_weights[][504] =
{
{0.0228016562759876,	0.0489428266882896,	0.00156359234824776,	0.027858980000019,	0.0120483338832855,	0.053671408444643,	-0.0273670721799135,	0.0161961764097213,	0.148661002516746,	0.0018630091799423,	0.0315394774079322,	0.0481469556689262,	-0.0826834514737129,	0.0148331215605139,	0.0391280464828014,	0.0514161214232444,	-0.0457646027207374,	0.0615531727671623,	-0.0722973421216011,	-0.0620472319424152,	-0.0774694606661796,	0.0462917871773242,	0.0840799584984779,	0.0127764232456684,	0.0173307601362466,	-0.147669836878776,	-0.0814830809831619,	-0.0325400680303573,	0.0550460219383239,	0.0121039692312479,	0.166131094098091,	0.0576671175658702,	-0.18181262910366,	-0.138172656297683,	0.112746983766555,	-0.0310345627367496,	0.00980193354189395,	0.124716371297836,	0.102579474449157,	0.0857455059885978,	-0.0717629417777061,	-0.0391351953148841,	0.097478449344635,	-0.0375145450234413,	-0.0011118376860395,	0.0309295523911714,	0.00304026552475988,	0.0691386014223098,	-0.0761797353625297,	-0.0744800120592117,	-0.0253835991024971,	0.0108562679961323,	-0.090349793434143,	-0.0529261715710163,	-0.187167078256607,	0.0242978855967521,	-0.063749223947525,	0.00465031201019883,	-0.157472401857376,	0.0584613494575023,	-0.116451561450958,	-0.0928224697709083,	-0.0572799406945705,	-0.078390397131443,	0.0233293268829584,	0.120223864912986,	-0.0437539517879486,	1.11648114398121E-05,	-0.0961641371250152,	-0.198060974478721,	-0.208942115306854,	-0.0733563005924224,	-0.00650512240827083,	-0.0250667687505483,	-0.119852371513843,	0.0653253644704818,	-0.151471495628356,	-0.164287120103836,	-0.00761017948389053,	-0.200655370950698,	0.0486915372312068,	0.0302982702851295,	-0.162912040948867,	-0.0521794520318508,	-0.192501187324523,	-0.035181064158678,	-0.021445570513606,	-0.186571836471557,	-0.108945369720458,	-0.0307266078889369,	-0.172394156455993,	-0.0134014198556542,	-0.012721974402666,	-0.135913327336311,	-0.104562066495418,	-0.190786093473434,	0.04253451526165,	-0.0715129151940345,	-0.181296452879905,	-0.0310579482465982,	-0.0920928344130516,	-0.171884328126907,	-0.137354910373687,	-0.140729859471321,	-0.100343465805053,	-0.0336885638535022,	0.0121269607916474,	0.0035487194545567,	-0.161353752017021,	-0.151330515742301,	0.0103675806894898,	-0.0419447310268878,	0.0482193529605865,	-0.0991330966353416,	-0.116447761654853,	0.0907078832387924,	-0.0391654968261718,	0.019968694075942,	0.0337403640151023,	-0.0969616845250129,	0.0716712027788162,	0.0830457881093025,	0.0355700217187404,	-0.074732594192028,	-0.0722663924098014,	-0.0980607345700263,	-0.0419753827154636,	-0.12272223830223,	0.0826285853981971,	-0.0353574492037296,	-0.0245965756475925,	-0.00813607592135667,	0.0818916037678718,	-0.0984575375914573,	0.00612196000292897,	-0.0354330949485301,	-0.00781339034438133,	0.0626202598214149,	-0.105117343366146,	-0.0428110137581825,	-0.0671102926135063,	-0.0586184822022914,	-0.0980130806565284,	-0.0294346567243337,	-0.0563042387366294,	-0.0100088026374578,	-0.139669179916381,	0.143064811825752,	0.00530402269214391,	-0.0563295036554336,	-7.67102756071835E-05,	0.029466250911355,	0.0630360692739486,	-0.0363463275134563,	-0.126355022192001,	0.117855958640575,	-0.115474425256252,	0.0413959175348281,	0.0112634738907217,	-0.150699794292449,	-0.0105472141876816,	-0.105556711554527,	-0.0956684574484825,	-0.0846539661288261,	0.0569057203829288,	0.047319907695055,	0.101890869438648,	0.0242088884115219,	0.00322019401937723,	0.00311053846962749,	-0.0429355278611183,	0.0159791968762874,	0.0515014715492725,	-0.0153747992590069,	0.0706506669521331,	0.00685039209201931,	0.0891004279255867,	0.0525580532848834,	-0.0224267896264791,	-0.0015087251085788,	0.0803641155362129,	0.171428114175796,	0.0817718505859375,	0.0524482689797878,	0.0751578733325004,	0.0625310242176055,	0.144639685750007,	-0.0877393037080764,	0.109216034412384,	0.0648548603057861,	0.128076016902923,	0.203808367252349,	0.053845964372158,	-0.0525929220020771,	0.063108816742897,	0.0785651057958602,	-0.034524917602539,	0.0334543585777282,	0.0852091014385223,	0.173660621047019,	0.0224929340183734,	0.0443799905478954,	0.0813366174697875,	0.0553088374435901,	0.00445983791723847,	0.113731436431407,	0.138903766870498,	0.219901099801063,	-0.094578243792057,	-0.0703223198652267,	0.17041403055191,	0.046461496502161,	0.049975249916315,	0.00204528006725013,	0.176626965403556,	0.077532060444355,	-0.109575562179088,	0.0471993423998355,	0.111935682594776,	0.07991174608469,	0.0336528271436691,	0.086014300584793,	-0.0185662023723125,	0.0056158984079957,	0.02208505384624,	0.0657253190875053,	-0.013689680956304,	-0.00683276867493987,	-0.105512596666812,	-0.0656717121601104,	-0.10130226612091,	0.0349472016096115,	-0.0576069392263889,	0.0798696279525756,	-0.0086180530488491,	-0.0272298138588666,	-0.0568616650998592,	-0.0264998991042375,	-0.0115294568240642,	-0.030664999037981,	0.00512603390961885,	0.148682415485382,	-0.0614998713135719,	0.139117196202278,	0.0753960758447647,	0.0757279023528099,	-0.068006120622158,	0.0353241302073001,	0.0500679798424243,	0.143095076084136,	0.028559586033225,	0.0331794507801532,	0.0268944147974252,	0.0152456210926175,	0.0298151150345802,	-0.0233265310525894,	0.0521964542567729,	0.00153714441694319,	-0.0245534256100654,	0.0274191834032535,	-0.0196157675236463,	0.14713467657566,	-0.053953006863594,	0.00634044129401445,	0.111882172524929,	0.181675896048545,	0.153491735458374,	0.0369911901652812,	0.0852849707007408,	0.0794635415077209,	0.0854177772998809,	0.0979728773236274,	-0.0304095838218927,	0.0563280433416366,	-0.0372462794184684,	0.0755861178040504,	-0.0299928840249776,	-0.0389242768287658,	-0.0773957148194313,	-0.07007247954607,	0.126204565167427,	0.167251974344253,	0.0311253741383552,	0.13432040810585,	0.0490335449576377,	-0.00514921825379133,	0.0514627322554588,	-0.0138579728081822,	0.0122091947123408,	-0.00211028382182121,	0.0831501930952072,	0.0773178115487098,	-0.115018211305141,	0.0880541279911994,	0.0769728943705558,	0.137886121869087,	-0.0275832824409008,	0.0437896810472011,	0.0996859073638916,	0.0423639267683029,	-0.107745215296745,	0.0241348538547754,	0.095498189330101,	0.0436810292303562,	0.0170517675578594,	-0.0609071068465709,	-0.0750161483883857,	0.0615171901881694,	-0.0889021158218383,	0.073719747364521,	-0.0217362511903047,	-0.103359624743461,	0.00966505426913499,	0.112855643033981,	-0.0526600256562232,	0.122533068060874,	0.048443779349327,	-0.078580655157566,	-0.191275566816329,	0.03477543592453,	0.0722454339265823,	0.101348519325256,	-0.0202132873237133,	0.0177867636084556,	-0.124594561755657,	0.0339234322309494,	0.0153510412201285,	0.0379195213317871,	0.0745237693190574,	0.00622665509581565,	0.0268191080540418,	0.000753660220652818,	0.0252293646335601,	-0.0594084672629833,	-0.135935813188552,	-0.0516733303666114,	0.15829849243164,	0.0325746722519397,	0.0236537363380193,	0.157285451889038,	-0.115177318453788,	0.0542796291410923,	0.0642148703336715,	0.0115371439605951,	0.133948639035224,	0.117413133382797,	-0.164942488074302,	0.10158696770668,	0.0154928117990493,	-0.191635861992835,	-0.0459872931241989,	-0.0934344977140426,	0.0589473508298397,	0.131198391318321,	-0.134055227041244,	0.0687438249588012,	-0.104478828608989,	0.0637281835079193,	0.00319453258998692,	-0.118113301694393,	0.159866869449615,	-0.0303829554468393,	-0.0605949349701404,	0.131219387054443,	-0.174106419086456,	-0.0590181238949298,	-0.11764508485794,	-0.0565720610320568,	-0.0271689854562282,	-0.0128830475732684,	-0.0820014476776123,	-0.013809666968882,	-0.0925370082259178,	-0.0740383863449096,	-0.110728584229946,	-0.101632945239543,	0.0671806931495666,	0.114254429936408,	-0.0516378730535507,	-0.060250237584114,	-0.156255051493644,	-0.145121842622756,	0.0341126471757888,	-0.228615030646324,	-0.0880676284432411,	0.00757368234917521,	-0.13014817237854,	-0.130754858255386,	-0.0103139774873852,	0.00457930983975529,	0.00258294329978525,	-0.176754772663116,	0.0418269671499729,	-0.0780834257602691,	-0.0616153627634048,	-0.03670135140419,	-0.0418840125203132,	-0.0753485858440399,	0.0475924797356128,	-0.170628875494003,	-0.0670781210064888,	0.0477670282125473,	-0.0197110567241907,	0.0258312206715345,	-0.100653007626533,	-0.00572730973362922,	0.09180498868227,	-0.10163564234972,	0.0396118760108947,	-0.0802570134401321,	-0.0888640582561492,	-0.0364252068102359,	0.03572404012084,	0.0519126094877719,	0.0518794283270835,	0.0433644987642765,	-0.140804409980773,	0.0130572775378823,	0.051627580076456,	-0.0574336163699626,	0.034503050148487,	-0.107801802456378,	-0.0145958112552762,	-0.00353480409830808,	0.00789970718324184,	-0.115922279655933,	-0.0117942783981561,	0.0623951777815818,	-0.0412252694368362,	0.157895907759666,	-0.0242770165205001,	-0.00729613937437534,	-0.0343508869409561,	-0.0293730404227972,	-0.0259428806602954,	0.0416826978325843,	-0.00277346279472112,	-0.0358470790088176,	-0.00208129826933145,	0.107754163444042,	-0.0445349253714084,	0.0652911961078643,	0.0715707093477249,	-0.0147469257935881,	0.0482308827340602,	-0.0803309082984924,	-0.0263966936618089,	0.00374510278925299,	0.0468014776706695,	0.0278325267136096,	-0.02145292237401,	-0.0952617675065994,	0.0207054987549781,	-0.050058789551258,	-0.13526527583599,	-0.0475418493151664,	-0.0496344678103923,	-0.0809324979782104,	-0.127628281712532,	0.0206373240798711,	-0.067389577627182,	0.0657245218753814,	0.0424742624163627,	0.0611038878560066,	-0.0211251378059387,	0.0535678677260875,	0.0124318748712539,	0.0590203069150447,	-0.103189416229724,	0.0811772942543029,	-0.156870320439338,	-0.121177121996879,	-0.0102773923426866,	0.00823608599603176,	-0.0946737974882125,	-0.0168521627783775,	0.0940359532833099,	0.0397373288869857,	0.132196754217147,	0.0185449291020631,	0.0839334577322006,	0.140022858977317,	-0.0691165253520011,	0.0126151675358414,	-0.0230781156569719,	0.0898718759417533,	0.0649632140994071,	-0.134270101785659,	0.227392196655273,	0.126161620020866,	-0.0225884076207876,	0.142143130302429,	0.0232271403074264,	0.0400688350200653,	-0.0739350169897079,	-0.044327188283205,	0.105568960309028,	0.119460761547088,	-0.0835653841495513,	0.0888485834002494,	-0.0334039852023124,	0.081128291785717,	0.0553024001419544,	0.0321879833936691},
{0.172190278768539,	0.15501220524311,	0.0869651287794113,	0.183927029371261,	0.101674832403659,	0.0365810506045818,	0.0356384105980396,	0.0330803655087947,	0.163348838686943,	0.208082810044288,	0.0301077216863632,	0.173504427075386,	-0.0282980222254991,	0.0300927516072988,	-0.0561597160995006,	0.0322515256702899,	0.109411649405956,	-0.0051686386577785,	0.0105381300672888,	0.00680669629946351,	-0.00161457597278058,	0.0580185577273368,	0.0849846675992012,	0.0240027699619531,	0.0261373799294233,	-0.113260589540004,	0.0600665472447872,	-0.14506421983242,	0.0807922855019569,	0.0111814141273498,	0.134277760982513,	-0.0430211685597896,	-0.0495473854243755,	-0.109539054334163,	0.0420078001916408,	-0.0650870203971862,	0.0769908726215362,	-0.0574373304843902,	-0.0164392944425344,	0.0236166846007108,	-0.135579690337181,	0.0406590849161148,	-0.0138675225898623,	0.021197747439146,	0.00909535214304924,	-0.0631237998604774,	-0.143280193209648,	0.0851030275225639,	0.0660575479269027,	-0.0468856878578662,	-0.192949429154396,	-0.105840235948562,	-0.0960067734122276,	-0.110932916402816,	-0.208664149045944,	-0.0547863841056823,	-0.00127005111426115,	-0.0253194458782672,	-0.114574871957302,	-0.0620650239288806,	-0.0779986456036567,	-0.108201280236244,	-0.124555356800556,	-0.0919568166136741,	0.0828438028693199,	0.0687951073050498,	-0.0467689856886863,	0.0409777648746967,	-0.180159911513328,	-0.0962071195244789,	-0.20305460691452,	-0.109794102609157,	0.0187094006687402,	-0.0674315989017486,	-0.189486503601074,	0.12783145904541,	-0.0864110216498374,	-0.156678140163421,	-0.0299375969916582,	-0.300698161125183,	-0.0497576147317886,	0.0322882048785686,	-0.0859463661909103,	0.0127401882782578,	-0.137926340103149,	-0.213216349482536,	-0.0493550673127174,	-0.186993226408958,	-0.11557287722826,	-0.0383330583572387,	-0.0510612875223159,	-0.0254600569605827,	-0.1431655138731,	-0.190275743603706,	-0.0228024125099182,	-0.0824805721640586,	0.0847805589437484,	-0.0580104514956474,	-0.20077596604824,	0.0129527598619461,	-0.118436180055141,	-0.0908209830522537,	-0.0677952617406845,	-0.227152064442634,	-0.0760294124484062,	-0.0964350774884223,	-0.224375024437904,	0.0300803445279598,	-0.120066739618778,	-0.121136717498302,	-0.0839365795254707,	-0.032807745039463,	-0.046382937580347,	0.0510242693126201,	-0.168124124407768,	-0.0195565316826105,	-0.0743570402264595,	-0.128560915589332,	-0.0642131194472312,	-0.157283633947372,	-0.0390572734177112,	0.0317488685250282,	-0.0414250120520591,	0.0424580983817577,	-0.135950073599815,	-0.0895535945892333,	-0.0658657029271125,	-0.141256228089332,	0.110971987247467,	0.0164508782327175,	0.00720631564036011,	-0.0458839610219001,	-0.0438158139586448,	0.0418269410729408,	0.0892751961946487,	0.025740684941411,	-0.0299412794411182,	0.00342102837748825,	0.0773452669382095,	0.0959097146987915,	-0.0822042524814605,	0.0402386896312236,	0.0399034395813941,	-0.0470077767968177,	-0.0413523577153682,	0.0461727082729339,	0.0112834637984633,	0.0731067880988121,	0.00528372079133987,	0.119540102779865,	-0.108210504055023,	0.0834874287247657,	0.0148124573752284,	0.109528958797454,	-0.0491610132157802,	0.113673575222492,	0.127826526761054,	0.00500953057780861,	0.157579317688941,	0.0531903021037578,	0.0335401631891727,	-0.0458117052912712,	-0.0457979924976825,	0.0476263836026191,	-0.0272307842969894,	0.0503227263689041,	0.187710583209991,	0.0948325842618942,	0.00988141261041164,	0.054986760020256,	-0.00600401265546679,	-0.0167502742260694,	0.0436668545007705,	0.146503552794456,	0.183631390333175,	0.147225007414817,	-0.077791579067707,	-0.00163666461594402,	-0.0201562866568565,	0.0275677628815174,	0.177796140313148,	0.127311885356903,	0.0893072187900543,	0.118373841047286,	-0.0353047586977481,	-0.00586684746667742,	0.129697978496551,	0.0598426349461078,	0.115392334759235,	0.163380861282348,	0.102757647633552,	0.248720169067382,	0.0854154825210571,	0.0297134742140769,	0.248238489031791,	0.107014164328575,	0.0476286150515079,	0.166683241724967,	0.0661705061793327,	0.0695807635784149,	0.00104358629323542,	-0.00544396415352821,	0.0883661583065986,	-0.032531339675188,	0.169654414057731,	0.191498950123786,	-0.0117995236068964,	0.0464300289750099,	-0.0063970941118896,	-0.0402573533356189,	0.146490469574928,	-0.051817663013935,	0.0758900195360183,	0.127966925501823,	0.196996942162513,	-0.0365150235593318,	-0.0621118173003196,	0.0875694826245307,	-0.0586245730519294,	-0.0423000529408454,	-0.0597687698900699,	-0.0156635884195566,	-0.234698429703712,	0.0284738764166831,	0.146094053983688,	0.0644026026129722,	0.128074869513511,	0.0744187012314796,	-0.145624980330467,	0.0368156135082244,	-0.0584167055785655,	0.0640129521489143,	0.0557050146162509,	0.0901930555701255,	-0.0312422309070825,	0.114491820335388,	-0.00223272712901234,	-0.175162255764007,	-0.135566249489784,	-0.137342855334281,	0.144611120223999,	0.191156208515167,	-0.101743377745151,	0.0724826008081436,	-0.0290616247802972,	-0.0334148854017257,	-0.0227982215583324,	0.0488072521984577,	0.0692331790924072,	0.0404438041150569,	-0.0469078347086906,	0.110764309763908,	-0.197310104966163,	-0.173073709011077,	-0.0431085489690303,	-0.0890341326594352,	-0.0129319243133068,	0.155697733163833,	-0.126675307750701,	0.239060327410697,	-0.0193611588329076,	-0.129246100783348,	-0.0597509965300559,	-0.0786681473255157,	0.0421737432479858,	0.161185309290885,	-0.0466375909745693,	0.0270525589585304,	-0.0349135287106037,	-0.0878179967403411,	0.0309038143604993,	-0.000488844292704015,	-0.0325441658496856,	0.144749075174331,	0.0382920019328594,	0.0873878896236419,	-0.0127384951338171,	-0.0371533259749412,	-0.173222690820693,	-0.0561856217682361,	0.179813250899314,	0.122977830469608,	-0.0101229781284928,	0.0934213027358055,	-0.0594699271023273,	-0.0294676963239908,	-0.0458644665777683,	-0.0831307247281074,	0.144914403557777,	-0.0112162083387374,	0.00191012548748403,	0.077844887971878,	-0.103371575474739,	-0.0694891512393951,	0.0590013489127159,	0.0612715259194374,	0.0761130005121231,	0.0506354942917823,	0.0854687243700027,	0.146205753087997,	-0.00279054720886051,	-0.00922764092683792,	-0.0150992991402745,	-0.0603219494223594,	-0.0961935147643089,	0.0330522432923316,	-0.0673389062285423,	0.00441176071763038,	-0.051263328641653,	0.0976290479302406,	-0.0166425947099924,	0.0442738346755504,	-0.0490249767899513,	0.0752427503466606,	0.134166792035102,	0.0659662038087844,	-0.0174857750535011,	-0.0294495522975921,	0.054835058748722,	0.0714694038033485,	-0.0258694104850292,	-0.0897726416587829,	0.139407604932785,	0.0536747351288795,	-0.0706290677189826,	0.0429913252592086,	0.0503038763999938,	-0.022683348506689,	0.00660035293549299,	0.118068434298038,	0.0670236349105834,	0.0591407231986522,	-0.0139192910864949,	0.143006101250648,	0.00765579147264361,	-0.0972655043005943,	0.03355672955513,	0.126076161861419,	-0.049746137112379,	-0.053794290870428,	0.0271850824356079,	-0.0792149603366851,	0.14828622341156,	0.0336705297231674,	-0.0548927932977676,	0.119224295020103,	-0.181780964136123,	0.111043609678745,	-0.0972834378480911,	-0.0546148382127285,	-0.0934052467346191,	-0.0409113802015781,	0.0847169682383537,	0.000726396101526916,	-0.0141656883060932,	0.070493645966053,	-0.00799374189227819,	0.0455294921994209,	-0.0417113453149795,	0.0747604444622993,	-0.0174909401684999,	-0.0149252349510788,	-0.0788328647613525,	0.0423934608697891,	-0.111037269234657,	0.00530138844624161,	-0.0471573509275913,	-0.080409936606884,	-0.0831849873065948,	0.0398367121815681,	0.00108326342888176,	0.0281929597258567,	0.000933566188905388,	0.0408824644982814,	-0.139598309993743,	-0.107128404080867,	-0.00257584615610539,	-0.0833074823021888,	0.0653810948133468,	0.0186524260789155,	-0.0984440594911575,	-0.0864516198635101,	0.0581327863037586,	-0.0344859063625335,	0.0673160180449485,	0.0650770366191864,	0.0257400926202535,	-0.152723088860511,	0.119806259870529,	0.00970188900828361,	-0.100644119083881,	0.0492862164974212,	-0.0459221825003623,	0.0674351975321769,	0.0488964915275573,	-0.129632458090782,	-0.0927488282322883,	0.092878058552742,	0.07682416588068,	-0.0608304589986801,	0.0441867969930171,	0.0235080178827047,	0.0185603871941566,	0.0019131654407829,	-0.0780097395181655,	0.107748590409755,	0.255852133035659,	0.0297445524483919,	-0.0774126052856445,	-0.0362696535885334,	-0.0250525213778018,	-0.0418816022574901,	0.00824753288179636,	0.0205097403377294,	0.188229173421859,	0.0753728002309799,	0.0112623078748583,	0.0929186567664146,	0.0396597348153591,	-0.0886400267481803,	-0.0325776562094688,	0.0506042577326297,	-0.0829687789082527,	0.102157063782215,	-0.0592103563249111,	-0.0463542230427265,	0.04219900816679,	-0.132099509239196,	0.138019546866416,	0.163919180631637,	-0.108906909823417,	0.0113436728715896,	-0.0855661556124687,	-0.00710235722362995,	0.0508908182382583,	-0.00375688821077346,	-0.0216071996837854,	0.0543803758919239,	-0.0328063145279884,	-0.0418532453477382,	-0.097947210073471,	-0.119106322526931,	0.04700418561697,	-0.122441157698631,	0.0534158051013946,	-0.107595317065715,	-0.175052300095558,	-0.0266173705458641,	-0.043609507381916,	-0.096360333263874,	-0.0549611523747444,	-0.0647314637899398,	-0.196996569633483,	-0.220656126737594,	-0.0633630529046058,	-0.0211259964853525,	-0.0111204832792282,	0.0277898721396923,	-0.182685941457748,	-0.0251306779682636,	-0.127247616648674,	-0.10850067436695,	-0.196299493312835,	-0.140515029430389,	0.0362129621207714,	-0.181111082434654,	-0.128995448350906,	-0.0723841488361358,	-0.126321375370025,	-0.230564549565315,	-0.136703521013259,	-0.210905939340591,	0.0927322953939437,	0.022434202954173,	-0.256722897291183,	0.0683044642210006,	-0.163556262850761,	-0.200743034482002,	-0.162053242325782,	-0.174832016229629,	0.118189893662929,	0.0023357484024018,	-0.259507238864898,	0.114283815026283,	-0.100937992334365,	-0.26373878121376,	-0.14784824848175,	-0.224730253219604,	0.194618642330169,	0.204211249947547,	-0.23935280740261,	0.10397070646286,	-0.116546928882598,	-0.160296842455863,	-0.0177741665393114,	-0.240778878331184,	0.139165177941322,	0.209869414567947,	-0.187375381588935,	0.374754905700683,	-0.0704231709241867,	-0.107951469719409,	-0.0741199105978012,	-0.175087213516235},
{0.140600591897964,	0.142617911100387,	0.0424374043941497,	0.0681603327393531,	-0.00938092172145843,	-0.0407974421977996,	0.0610133595764636,	0.0298852305859327,	0.0939855724573135,	0.210328727960586,	0.0282593518495559,	0.114073604345321,	0.0251878853887319,	0.00364462612196803,	-0.05125168338418,	0.00692321546375751,	0.0754574686288833,	0.0012793990317732,	-0.0162925645709037,	-0.0232618879526853,	-0.0290847904980182,	0.0411495380103588,	0.0691637322306632,	-0.0110950348898768,	0.00201365910470485,	-0.117785833775997,	0.0548569038510322,	-0.025342620909214,	-0.022191422060132,	-0.0265697669237852,	0.267827123403549,	0.0446652024984359,	-0.0843231230974197,	-0.16248881816864,	0.122529678046703,	-0.000155321686179377,	0.119921594858169,	0.133869022130966,	0.12001834064722,	0.0403969250619411,	-0.0968032926321029,	-0.125130400061607,	0.0236688237637281,	0.0426568984985351,	-0.0156839899718761,	-0.0367923378944396,	0.0141440741717815,	0.0547047965228557,	0.106622368097305,	-0.0698694363236427,	-0.147116065025329,	0.0985520184040069,	-0.0750618875026702,	-0.0641491338610649,	-0.143590867519378,	0.0481279715895652,	0.0965988934040069,	0.11154282093048,	-0.018063697963953,	0.00884339027106761,	-0.0395673252642154,	-0.0253734905272722,	-0.0550851039588451,	0.0135261844843626,	0.137206748127937,	0.0224810279905796,	-0.169683247804641,	0.142638280987739,	-0.115902170538902,	-0.147269427776336,	-0.135970920324325,	-0.127409979701042,	0.0980809032917022,	0.0435483530163764,	-0.138048648834228,	0.0863294675946235,	-0.0477591529488563,	-0.0461001843214035,	-0.0845152884721755,	-0.120148867368698,	0.0757539346814155,	0.0755709186196327,	-0.0912657305598258,	0.124655395746231,	-0.0496034696698188,	-0.142511591315269,	-0.185300186276435,	-0.200853586196899,	0.0596672035753726,	0.0400644466280937,	-0.124043568968772,	0.0419848337769508,	-0.0890446156263351,	-0.212092265486717,	-0.112077325582504,	-0.167095765471458,	-0.00561912870034575,	-0.0416001565754413,	-0.0623338520526885,	-0.0841333344578742,	0.000173962951521389,	-0.065367929637432,	-0.0925634279847145,	-0.0905511155724525,	-0.0053707268089056,	0.0455256812274456,	-0.000277499551884829,	0.0871603935956954,	-0.0060131293721497,	0.00284073548391461,	0.00257273530587553,	-0.15858419239521,	-0.0567210800945758,	-0.0177369117736816,	-0.0622278563678264,	-0.00446794368326663,	-0.141551166772842,	-0.0101829683408141,	0.0372995398938655,	-0.000843004730995744,	0.0197636112570762,	-0.00380467204377055,	-0.00498564494773745,	0.0108345244079828,	-0.0675490796566009,	-0.107784450054168,	-0.0242843348532915,	-0.0363597683608531,	0.0259195156395435,	0.0764679834246635,	-0.0883826613426208,	-0.0950925350189208,	-0.0300085842609405,	-0.153259590268135,	-0.0547767467796802,	-0.0505760945379734,	0.109205245971679,	-0.0929044485092163,	-0.109163500368595,	0.0974703952670097,	0.0252475328743457,	-0.147097960114479,	-0.0855692252516746,	0.0147594567388296,	-0.00560496607795357,	0.0322234630584716,	-0.0768351480364799,	0.0578646324574947,	-0.0426397770643234,	-0.0837881937623023,	0.0346746630966663,	-0.0337548106908798,	0.0504347160458564,	-0.0375869832932949,	-0.0152160162106156,	0.167218655347824,	-0.0400880351662635,	0.0739442035555839,	-0.042563822120428,	-0.0024087515193969,	-0.00372003624215722,	0.00123502872884273,	-0.0114214457571506,	0.0752253979444503,	0.0401883535087108,	0.0537580661475658,	0.0183051992207765,	-0.0167919658124446,	0.034208208322525,	0.119530729949474,	0.0730930045247077,	-0.0350459925830364,	-0.0345835611224174,	-0.054578885436058,	0.118336759507656,	0.074839249253273,	0.0895712301135063,	-0.0158254913985729,	0.0980564951896667,	-0.0304471533745527,	0.0995570793747901,	0.144069135189056,	0.00939063541591167,	0.109683960676193,	-0.00709175877273082,	0.0312191676348447,	0.0654296800494194,	-0.0837807431817054,	0.206288680434226,	0.210467383265495,	0.180661082267761,	0.20169673860073,	0.0985668525099754,	-0.0722058787941932,	0.0967199951410293,	0.006965315900743,	-0.0113728856667876,	0.0352653674781322,	0.141904577612876,	0.0306503884494304,	0.012103627435863,	0.064558483660221,	0.150233015418052,	0.0601910017430782,	0.0769082233309745,	0.0613310411572456,	0.0967626795172691,	-0.0248311273753643,	0.0150728663429617,	0.0255388487130403,	0.115009471774101,	-0.000195344939129427,	0.164953380823135,	-0.00903026293963193,	0.0399100370705127,	0.153099253773689,	0.112288579344749,	0.0413190424442291,	-0.0600396953523159,	-0.0986449047923088,	-0.0452263019979,	-0.00309207173995673,	-0.114831216633319,	0.0448983572423458,	-0.0463626012206077,	0.0486217886209487,	0.114588916301727,	0.0834281966090202,	0.0669815614819526,	0.0330752506852149,	-0.0993336886167526,	0.0313438959419727,	0.123695343732833,	-0.0571801923215389,	0.0448844246566295,	0.0215204544365406,	0.0444256700575351,	-0.0144472494721412,	0.0324630290269851,	-0.0634361058473587,	0.0785752534866333,	0.00291800498962402,	0.0301397163420915,	0.0224034488201141,	0.0890857875347137,	-0.00476993946358561,	0.0925501286983489,	0.0845950543880462,	0.109230540692806,	-0.0179351828992366,	-0.0530788265168666,	-0.00309662241488695,	-0.0560718029737472,	-0.0984607562422752,	0.078884482383728,	0.0518840514123439,	-0.0102294879034161,	-0.00879842787981033,	0.0708631873130798,	0.0740329548716545,	0.0685982853174209,	0.00515769002959132,	-0.0304913520812988,	0.0153721682727336,	0.0809580311179161,	0.0673338696360588,	0.0848424807190895,	0.0474617443978786,	0.0992952212691307,	0.089996188879013,	0.0614284500479698,	0.0167211815714836,	-0.0549420975148677,	0.0725079998373985,	-0.108035363256931,	0.140365794301033,	-0.00600676238536834,	0.0138162113726139,	-0.16811017692089,	-0.0294873733073472,	-0.0017899228259921,	0.0573022365570068,	-0.040895227342844,	0.0202729944139719,	0.0901428610086441,	0.107668615877628,	0.101842023432254,	-0.00412521883845329,	0.121571093797683,	-0.0486696511507034,	0.0434484742581844,	-0.0529085472226142,	-0.0557686500251293,	-0.00680681783705949,	0.0373866222798824,	-0.0221883989870548,	-0.0520587302744388,	-0.00190537923481315,	0.0917905196547508,	0.0670938864350318,	0.0251283794641494,	0.0509898476302623,	0.0707348734140396,	0.0619719438254833,	-0.0164079517126083,	0.0486936569213867,	0.069896325469017,	0.0479171201586723,	0.046007677912712,	-0.114476904273033,	-0.0110130822286009,	-0.0590777173638343,	-0.0595537163317203,	0.0729618519544601,	-0.019512727856636,	0.0937282666563987,	0.000379885052097961,	-0.0738669112324714,	-0.00334082776680588,	-0.0221119578927755,	0.107078716158866,	0.0718364641070365,	0.126685813069343,	0.0989015251398086,	-0.0466990880668163,	0.0868808403611183,	0.0365934409201145,	-0.00417601037770509,	0.0641242936253547,	0.152632728219032,	0.0278190933167934,	0.173228204250335,	0.0128826918080449,	0.0057331658899784,	0.0375088043510913,	0.0147224236279726,	0.0914888978004455,	0.141305401921272,	0.0358178913593292,	0.00348197692073881,	-0.00752407731488347,	0.0375735610723495,	0.10720819979906,	-0.123151175677776,	0.0152998985722661,	-0.0227893274277448,	-0.0980496332049369,	0.00810809154063463,	0.0114762047305703,	0.0736464187502861,	0.0600816309452056,	-0.0954410880804061,	0.020722821354866,	0.0413829050958156,	-0.103985600173473,	0.0896778777241706,	0.00803081039339303,	0.00814339704811573,	-0.0237304363399744,	-0.0559595301747322,	-0.0123293213546276,	-0.0582946762442588,	-0.0541038066148757,	0.129611283540725,	0.00479422323405742,	0.0256497059017419,	-0.0934685543179512,	0.00176861975342035,	0.0814962461590766,	0.0881546959280967,	-0.0513517782092094,	-0.0667762979865074,	-0.0661035478115081,	-0.0181372351944446,	-0.0373509228229522,	-0.120381012558937,	-0.00382923078723251,	0.0686783716082572,	-0.0920831784605979,	-0.0415485128760337,	-0.0528008975088596,	-0.114821828901767,	0.0616343095898628,	0.00606715027242898,	0.0118131209164857,	-0.0486815571784973,	0.0545479655265808,	-0.118511550128459,	0.000466120574856176,	0.0690561383962631,	-0.0846729725599288,	0.0590454787015914,	0.00878650229424238,	0.0428375340998172,	0.0513891018927097,	-0.0195594858378171,	0.102128505706787,	-0.0617486163973808,	0.102829024195671,	0.0673650354146957,	-0.0574380420148372,	-0.00198501790873706,	0.0719759166240692,	-0.11582688242197,	-0.07212346047163,	0.0489669330418109,	0.175442859530448,	0.0341921113431453,	-0.023719310760498,	-0.0722009688615798,	0.132254987955093,	-0.136142268776893,	0.0292324498295783,	0.0566927380859851,	0.124342285096645,	-0.00150165345985442,	-0.119634211063385,	0.0311640948057174,	0.0812053233385086,	0.015850493684411,	-0.030554611235857,	0.0444560274481773,	-0.106786504387855,	-0.0788942798972129,	-0.129673287272453,	-0.051588051021099,	0.0668611004948616,	0.014005315490067,	0.0477631948888301,	-0.0406580679118633,	-0.0681706815958023,	0.116951018571853,	-0.0919211059808731,	-0.0189759451895952,	-0.0671334117650985,	-0.00861184857785701,	-0.0877864956855773,	-0.126159071922302,	-0.106342054903507,	-0.0714650303125381,	-0.119702443480491,	-0.00200242083519697,	0.0111499642953276,	-0.0673060491681098,	-0.0666424334049224,	-0.183318346738815,	-0.0891912132501602,	-0.150277107954025,	-0.0606860034167766,	-0.0925646647810935,	-0.0403214283287525,	0.0358700267970561,	-0.158561781048774,	-0.112639501690864,	0.0244287643581628,	-0.142376497387886,	-0.0797966420650482,	-0.109366044402122,	-0.0860437825322151,	0.0881733819842338,	-0.0763969048857688,	-0.0975018888711929,	-0.13992266356945,	-0.00251138163730502,	-0.0527397654950618,	-0.104658588767051,	-0.189502537250518,	-0.0576443895697593,	-0.0660126060247421,	-0.0645047053694725,	-0.0691314041614532,	-0.0368804410099983,	0.00769073562696576,	0.0728097632527351,	-0.180679336190223,	0.107313938438892,	-0.185940444469451,	-0.0456161238253116,	-0.101305827498435,	-0.0211767926812171,	0.100640617311,	0.0436469912528991,	-0.156056150794029,	0.19337747991085,	-0.0928940922021865,	-0.160530984401702,	-0.114546991884708,	-0.0906210020184516,	0.106539145112037,	0.158335700631141,	-0.0917766392230987,	0.147203221917152,	-0.144252032041549,	-0.231174185872077,	-0.0985011234879493,	-0.217021584510803,	0.238794326782226,	0.124519020318984,	-0.140832066535949,	0.0830883234739303,	-0.115166291594505,	0.0672231391072273,	-0.0118957320228219,	-0.0902782529592514},
{0.0682124346494674,	-0.052000381052494,	0.0508840270340442,	-0.149902015924453,	0.126926437020301,	0.153466284275054,	0.043613102287054,	0.00503380130976438,	-0.141872286796569,	-0.122924163937568,	-0.0433070920407772,	-0.197212383151054,	-0.00235590245574712,	-0.0316547937691211,	0.125773206353187,	0.100182451307773,	-0.103380233049392,	-0.074605569243431,	0.0777307972311973,	0.0256690289825201,	0.0867878124117851,	0.0238716807216405,	-0.0696687251329421,	-0.0165561903268098,	0.0639763623476028,	-0.05243356898427,	0.0292304493486881,	0.0399951823055744,	-0.0483816638588905,	-0.134863719344139,	-0.192073315382003,	0.0674075558781623,	0.12472977489233,	0.0978685021400451,	-0.0195027235895395,	-0.0385775901377201,	-0.0193286184221506,	0.0351070426404476,	-0.066304437816143,	-0.0337394475936889,	0.040846113115549,	-0.0209207404404878,	-0.0404565557837486,	0.161305889487266,	0.0542772859334945,	0.0689123049378395,	0.0301349982619285,	-0.079629898071289,	0.0300476010888814,	0.00910698436200618,	-0.0709647759795188,	0.020446803420782,	0.0442805923521518,	0.100147612392902,	0.128319546580314,	-0.0594176650047302,	0.0664021000266075,	0.0272050704807043,	0.103740446269512,	0.119318410754203,	-0.0105397077277302,	-0.0530754104256629,	-0.00475140148773789,	0.0807311236858367,	-0.0692711621522903,	0.0405187308788299,	0.0599616803228855,	0.0552605688571929,	0.0775719583034515,	0.129737436771392,	-0.0212547685950994,	-0.00820203125476837,	-0.0190898235887289,	0.0761070325970649,	-0.0422323979437351,	-0.0269980542361736,	0.115513145923614,	-0.0288890283554792,	-0.00814973562955856,	0.149667158722877,	-0.0508373491466045,	0.0816945061087608,	0.0657921880483627,	0.0642162561416625,	0.121887870132923,	-0.0590126812458038,	0.125410079956054,	0.0851657092571258,	0.131271004676818,	0.0733972862362861,	-0.0259080845862627,	-0.0361456684768199,	-0.0807606726884841,	0.0336478613317012,	-0.0611114129424095,	-0.0670572966337203,	0.0949417725205421,	-0.00714759714901447,	0.00374809023924171,	0.0327157974243164,	0.0460111983120441,	0.0691230818629264,	-0.0696487352252006,	0.00260680099017918,	0.00234821625053882,	-0.0100400168448686,	0.0766234919428825,	-0.0529698841273784,	-0.00947837065905332,	-0.0385496169328689,	-0.057118609547615,	0.0984416231513023,	0.090604081749916,	0.0835178941488265,	-0.0346105545759201,	-0.0449509620666503,	-0.0752468928694725,	-0.0421505980193614,	0.0254673082381486,	0.0576467327773571,	0.0108291031792759,	0.0117248827591538,	-0.0570197738707065,	0.0441207438707351,	0.147957995533943,	-0.00342596950940787,	0.0276862792670726,	0.120544165372848,	0.0667934790253639,	-0.00170709809754043,	-0.0224534627050161,	0.0637218132615089,	0.0469340458512306,	0.0571744702756404,	-0.0601148903369903,	0.0904005393385887,	0.0784292221069335,	-0.0448783114552497,	-0.00494702393189072,	0.0156964547932147,	0.0569201819598674,	0.131385132670402,	0.0392917953431606,	0.106281250715255,	-0.0921003296971321,	-0.0634899213910102,	0.0346292853355407,	0.0291197560727596,	0.0376276932656764,	-0.0223798621445894,	0.0858532041311264,	0.0756977051496505,	-0.0905321538448333,	0.0463859140872955,	0.164148688316345,	0.0876440554857254,	0.0782514289021492,	0.150141805410385,	0.0945687741041183,	0.135651618242263,	-0.0104172164574265,	0.10898769646883,	0.0786285325884819,	0.111948169767856,	0.054892111569643,	0.131354972720146,	-0.00450538098812103,	0.0859753862023353,	0.0282715763896703,	-0.0018796008080244,	-0.0278026834130287,	-0.110471256077289,	0.0765096768736839,	-0.00541366497054696,	0.0286231245845556,	0.0550544597208499,	0.0447999499738216,	0.0205046739429235,	0.0714383199810981,	0.0609296075999736,	0.0208607576787471,	-0.0898979902267456,	-0.189577206969261,	0.0588979236781597,	0.102670773863792,	0.149042829871177,	-0.0532947927713394,	0.0310602728277444,	-0.0386435016989707,	-0.162518113851547,	-0.100876122713088,	-0.074835367500782,	0.114638909697532,	0.09811931848526,	-0.0854697898030281,	0.115489490330219,	-0.0714425146579742,	-0.0259612202644348,	-0.0927320122718811,	-0.0271141547709703,	-0.00910266768187284,	0.0240473896265029,	-0.00270722014829516,	0.123582161962985,	0.0634644925594329,	0.0664123520255088,	-0.0275003612041473,	-0.0617277175188064,	-0.038145400583744,	0.0586376041173934,	0.0118523025885224,	0.0424217283725738,	-0.076675422489643,	-0.000426397775299847,	-0.137816116213798,	0.0210250951349735,	0.0860313102602958,	0.0914316847920417,	-0.0342585928738117,	0.102480247616767,	0.0538230910897254,	-0.0355963334441184,	-0.00774080632254481,	-0.106076747179031,	0.020260876044631,	0.0365456901490688,	-0.0905343666672706,	-0.0571079812943935,	-0.0102528883144259,	0.0971437022089958,	0.193182781338691,	0.0773331522941589,	-0.0908118039369583,	-0.0617188103497028,	-0.00501724565401673,	-0.11256667971611,	0.0795950889587402,	-0.0533499531447887,	0.0130606349557638,	0.0208008047193288,	-0.0555199235677719,	-0.0270180460065603,	-0.00367881963029503,	0.0333062522113323,	0.139890670776367,	0.0689346566796302,	0.0189156141132116,	0.0661364868283271,	-0.0900813415646553,	-0.0330336466431617,	-0.0703547969460487,	-0.0371673107147216,	0.0927027016878128,	-0.015720035880804,	0.0610297210514545,	0.0712732449173927,	-0.10698740184307,	-0.00593232875689864,	0.0534266121685504,	0.0229857806116342,	0.0704931914806365,	-0.093050517141819,	0.036167562007904,	-0.0781859531998634,	-0.0028903866186738,	-0.143802717328071,	-0.000744870689231902,	-0.0719451755285263,	-0.0169041585177183,	0.0516317225992679,	-0.0122236078605055,	-0.0139779150485992,	0.0651062875986099,	0.0452164709568023,	0.0414155684411525,	-0.0779382213950157,	0.0826014801859855,	-0.0508064776659011,	0.0446813143789768,	-0.102685824036598,	-0.097380056977272,	-0.0599350184202194,	-0.0745728388428688,	-0.0034290300682187,	0.0351549945771694,	-0.103013321757316,	-0.0041057295165956,	-0.0593952164053916,	-0.0729297995567321,	0.0790556445717811,	-0.145965099334716,	-0.0576823987066745,	-0.0761294960975646,	-0.128306910395622,	-0.13096560537815,	-0.00910390447825193,	0.102284893393516,	0.0491559840738773,	-0.0630907118320465,	-0.00189671060070395,	0.128577753901481,	-0.0821307450532913,	-0.0990304872393608,	0.110768437385559,	0.0960657820105552,	0.0758120641112327,	0.108199700713157,	0.00232551200315356,	0.0548122823238372,	-0.0221354719251394,	-0.0492837354540824,	-0.0901329815387725,	-0.0330183543264865,	0.146882638335227,	0.00847404357045888,	0.0173135269433259,	0.0652209371328353,	-0.0990065112709999,	-0.0451483391225337,	0.0190371368080377,	0.0123363090679049,	0.100984513759613,	-0.0356919690966606,	-0.00968159642070531,	-0.0168515965342521,	-0.0396244972944259,	0.0862935557961463,	-0.0584174543619155,	-0.0665677115321159,	-0.0568027086555957,	0.0407705679535865,	-0.117980480194091,	0.0396829769015312,	0.0184205751866102,	0.171943858265876,	0.0339050404727458,	-0.0334993116557598,	0.0641474723815917,	-0.0068061570636928,	-0.0340407565236091,	0.0145901395007967,	0.0933988466858863,	0.0257501155138015,	-0.0311367139220237,	0.0324511975049972,	-0.0774504616856575,	0.139607414603233,	-0.0746205896139144,	-0.00618868041783571,	-0.0277936831116676,	0.0636929422616958,	0.119176752865314,	0.0520644374191761,	-0.0679467320442199,	0.008089579641819,	-0.124065846204757,	0.000269349489826709,	-0.0214093811810016,	0.0220960266888141,	0.0342332199215888,	-0.13772402703762,	-0.0587791092693805,	0.037152100354433,	-0.145891800522804,	0.0818177834153175,	-0.0220660045742988,	0.0271617397665977,	0.129766523838043,	-0.0945010632276535,	-0.0841652452945709,	0.116451926529407,	-0.0253397710621356,	0.0262846164405345,	-0.0932223126292228,	0.0203721206635236,	0.0785271674394607,	-0.0072642657905817,	-0.0606741420924663,	0.0829807817935943,	0.0302010141313076,	0.00979394558817148,	0.0430633910000324,	-0.0785180255770683,	0.0885085836052894,	0.0405587516725063,	-0.0471291691064834,	0.0332547798752784,	0.0592782646417617,	-0.0517695434391498,	-0.0799687951803207,	0.0858384743332862,	0.120646692812442,	-0.0436483770608901,	0.0447467528283596,	-0.00474524172022938,	0.0105894645676016,	0.0298120211809873,	-0.0995295941829681,	0.0290500931441783,	-0.0740033239126205,	0.00175432977266609,	0.0613394267857074,	0.0393891930580139,	0.100920125842094,	-0.00683612888678908,	-0.038868810981512,	-0.152129679918289,	0.040487565100193,	0.0625318884849548,	-0.0571417361497879,	-0.0182625669986009,	0.0299417953938245,	0.0804851204156875,	-0.0657998695969581,	-0.0198168102651834,	0.0967229530215263,	0.0848740935325622,	0.0586630292236804,	0.0891952589154243,	0.0388207249343395,	-0.0555922351777553,	-0.0801506042480468,	0.0916053503751754,	-0.0993226021528244,	0.0723978206515312,	0.00411402620375156,	0.0533252097666263,	0.0519224368035793,	0.0544474460184574,	0.0493191480636596,	0.0487147867679595,	0.0115149291232228,	0.0621352046728134,	0.128594398498535,	-0.0850073099136352,	0.0237752236425876,	0.0294426251202821,	-0.0142410695552825,	0.121321573853492,	-0.0179700087755918,	0.0209569111466407,	-0.0498755276203155,	0.0475322641432285,	-0.0995369032025337,	0.0218307469040155,	0.100936152040958,	0.0230261776596307,	-0.0989312678575515,	0.00607925141230225,	0.0288950018584728,	0.0521051734685897,	0.055214736610651,	0.0824164822697639,	-0.0382962599396705,	0.11951357871294,	0.0250800903886556,	0.0504455231130123,	0.0906071886420249,	0.0187767148017883,	0.0484416782855987,	0.00489890109747648,	0.0921572968363761,	0.165840849280357,	0.0180634576827287,	0.0199336223304271,	-0.0315790809690952,	-0.0507380776107311,	-0.0859374552965164,	0.101390518248081,	0.0815971121191978,	0.0230235122144222,	0.0232562907040119,	-0.0670454204082489,	-0.0100928507745265,	-0.00486894603818655,	-0.0322314724326133,	0.00791881512850522,	-0.00428877305239439,	-0.0118462331593036,	-0.00360310147516429,	-0.0995156466960906,	0.0128208231180906,	-0.0789599269628524,	-0.113366089761257,	0.0870283246040344,	0.0857919603586196,	-0.0565168112516403,	0.120133534073829,	-0.108827978372573,	-0.0949428975582122,	0.0868289247155189,	0.00451293215155601,	-0.0727701932191848,	-0.0103723350912332,	-0.00743582425639033,	-0.0853112787008285,	-0.101893991231918,	-0.14161404967308,	-0.00294612580910325,	-0.0666441917419433,	-0.051854558289051,	-0.028800981119275,	-0.0813217386603355,	-0.0950987264513969},
{0.0334774889051914,	0.0661276578903198,	0.0536800920963287,	-0.0172068085521459,	0.025503322482109,	0.0983604118227958,	0.0925472602248191,	0.0979930832982063,	-0.12322848290205,	-0.144968464970588,	0.0842002034187316,	-0.164323478937149,	0.0102243572473526,	0.0373948961496353,	0.142742201685905,	0.0655773431062698,	-0.0865236595273017,	-0.12678550183773,	0.0204829070717096,	-0.0479241199791431,	0.0166884660720825,	-0.0217657722532749,	0.00241575855761766,	-0.0307458154857158,	-0.0503363013267517,	0.0370330438017845,	-0.0290588717907667,	0.116066746413707,	0.0626255571842193,	-0.0917607098817825,	-0.115448415279388,	0.0162687636911869,	0.122318796813488,	-0.000458376482129096,	-0.0558083951473236,	0.0873061791062355,	-0.104740999639034,	-0.0479978136718273,	-0.0867577865719795,	-0.0994743332266807,	0.186714127659797,	-0.000792501727119088,	-0.0409061312675476,	0.127478882670402,	0.00269723823294043,	-0.0171465910971164,	-0.155017435550689,	-0.0128796892240643,	0.127560585737228,	0.070073090493679,	-0.0336145460605621,	-0.0166356991976499,	-0.0615147873759269,	-0.0103406263515353,	0.0041817370802164,	0.0279398243874311,	0.115092888474464,	0.0728574320673942,	0.117724679410457,	0.0311046224087476,	0.102648109197616,	0.0238452684134244,	0.0211231876164674,	0.0426160357892513,	-0.0741157978773117,	-0.000785604584962129,	0.0550773851573467,	0.065043032169342,	-0.0830801725387573,	-0.0711628273129463,	0.0485244244337081,	-0.0868944451212882,	-0.0610905177891254,	-0.0248874966055154,	0.00291796587407588,	-0.0426881499588489,	-0.0748560428619384,	0.0277698189020156,	-0.000540576642379164,	0.00014360953355208,	0.0404677353799343,	0.116455949842929,	-0.0887236446142196,	-0.00767287937924265,	-0.0520581007003784,	-0.0773856565356254,	-0.0997949838638305,	0.0533133000135421,	0.0833266004920005,	0.0340767912566661,	-0.00597588624805212,	0.0858181715011596,	-0.0577870421111583,	-0.0338326282799243,	-0.0150688681751489,	-0.0210409890860319,	0.0127213764935731,	0.114745542407035,	0.0472247041761875,	-0.0243577491492033,	-0.00377677287906408,	0.0617287382483482,	0.0181206669658422,	-0.044191725552082,	0.0166426785290241,	0.0513491965830326,	0.0565052330493927,	-0.0180722121149301,	-0.105637021362781,	-0.115504510700702,	-0.101068720221519,	-0.0749765112996101,	0.0164189487695693,	0.0128555195406079,	-0.0984681993722915,	0.133802980184555,	-0.111805297434329,	-0.104911379516124,	-0.0134767470881342,	-0.085723154246807,	0.0155563512817025,	0.115532949566841,	-0.00314116710796952,	0.0522623173892498,	0.132056832313537,	0.0867910608649253,	0.0149373319000005,	-0.058728888630867,	-0.0306791588664054,	0.0197537615895271,	0.00222284952178597,	0.00519147887825965,	0.00109273148700594,	-0.104544267058372,	-0.103373102843761,	0.0788372009992599,	0.0940688103437423,	0.0241023190319538,	-0.0727982595562934,	0.141861766576766,	0.140385821461677,	0.118928797543048,	-0.118362464010715,	-0.0751434490084648,	0.0517619736492633,	0.00145637872628867,	-0.00471887178719043,	0.0895453095436096,	-0.0236478149890899,	-0.062019009143114,	-0.0147565361112356,	-0.0875046178698539,	0.095575675368309,	0.0171064641326665,	0.00332446629181504,	0.106863901019096,	0.0781743600964546,	0.0289161447435617,	0.0159925762563943,	-0.0290003884583711,	0.0555493533611297,	0.121636413037776,	-0.0268826093524694,	0.0706590414047241,	-0.027503989636898,	0.0442813746631145,	-0.19346909224987,	-0.111217565834522,	0.12241294234991,	0.0131734889000654,	-0.0174922980368137,	0.0321085005998611,	-0.0889842957258224,	0.0661830008029937,	-0.120351798832416,	-0.0370005667209625,	0.123647466301918,	0.119597502052783,	-0.0428853966295719,	0.114830940961837,	-0.194658279418945,	-0.155024051666259,	-0.129618376493453,	-0.0424204841256141,	0.112537503242492,	0.0540842227637767,	-0.0657755360007286,	0.113038696348667,	-0.108026392757892,	-0.0259124469012022,	-0.0350561514496803,	-0.117575347423553,	0.131644293665885,	0.0340905897319316,	-0.0413408540189266,	0.0751338377594947,	0.0843671634793281,	-0.06841292232275,	-0.00904349144548177,	0.0515193082392215,	0.0905507281422615,	-0.0118482280522584,	0.00358959683217108,	-0.0137556791305541,	-0.0169730372726917,	0.0751004144549369,	0.0201504994183778,	-0.0917230173945426,	0.0392524525523185,	0.011939987540245,	-0.0767699405550956,	0.0119034070521593,	0.0323763042688369,	0.0172214899212121,	-0.100973822176456,	0.0500424019992351,	0.0721418410539627,	-0.0395440720021724,	0.0361629799008369,	0.0110430112108588,	-0.0980932265520095,	-0.0163089055567979,	-0.0160240232944488,	0.027596840634942,	-0.0678657367825508,	0.0565636530518531,	-0.114452265202999,	0.0349640399217605,	0.10485491156578,	-0.01391311455518,	0.039256252348423,	-0.0818725824356079,	0.0302212797105312,	-0.0571564361453056,	0.0384483560919761,	-0.0513455010950565,	-0.062952421605587,	-0.109343595802783,	-0.0139786452054977,	0.0588762275874614,	-0.0705069452524185,	-0.0151307070627808,	-0.059673111885786,	0.0169071573764085,	0.120054125785827,	0.0946525260806083,	0.127158284187316,	-0.0434795320034027,	0.0837813392281532,	-0.0794464722275733,	-0.0385516509413719,	-0.123014070093631,	-0.0707464292645454,	0.0421683155000209,	-0.0344255976378917,	0.0368433557450771,	-0.0686359778046607,	-0.128056645393371,	-0.0500800274312496,	-0.00621646642684936,	0.100151970982551,	-0.0601171068847179,	0.0171585474163293,	-0.00295197870582342,	-0.104371264576911,	-0.102456413209438,	0.027814045548439,	-0.0903592184185981,	-0.00696121854707598,	0.0299857314676046,	-0.0156219769269227,	-0.0984214544296264,	-0.107752457261085,	0.0347059182822704,	0.0629797726869583,	0.0305709559470415,	0.0558654554188251,	-0.0246146973222494,	0.196934700012207,	0.0581071265041828,	0.0380328707396984,	0.0105737969279289,	0.10161705315113,	-0.0166087318211793,	-0.0448902584612369,	-0.0807747691869735,	-0.0517534837126731,	0.0691259279847145,	-0.0430527999997138,	0.0929981768131256,	0.0182690694928169,	0.046503011137247,	0.047557558864355,	-0.0733188465237617,	0.0381619110703468,	0.0656233951449394,	-0.0215529892593622,	-0.0820863097906112,	0.0813147500157356,	0.0436177663505077,	0.0711192265152931,	0.0364063717424869,	-0.0308975540101528,	0.105774328112602,	-0.0252058878540992,	0.076677493751049,	0.0582286305725574,	0.0674014016985893,	0.144190669059753,	-0.070189356803894,	-0.0452404282987117,	-0.0821818709373474,	-0.0388123355805873,	0.0350928977131843,	-0.0200503580272197,	-0.0774076730012893,	0.0697606205940246,	0.0786264091730117,	-0.0137708978727459,	-0.093731865286827,	-0.0653570666909217,	-0.0744015201926231,	-0.0698528736829757,	-0.0496906712651252,	0.0192127991467714,	0.0230839699506759,	0.0679012984037399,	0.0741804018616676,	-0.121395766735076,	0.00944098085165023,	-0.0246062166988849,	-0.0705496743321418,	-0.0152430161833763,	0.0347846262156963,	0.140247613191604,	0.119165115058422,	-0.178167730569839,	-0.124378129839897,	0.0417764745652675,	-0.0645543113350868,	0.00521350093185901,	-0.0280934870243072,	-0.0123787559568881,	-0.0254440531134605,	-0.155473232269287,	-0.145528569817543,	0.0573354065418243,	-0.0783405974507331,	-0.0382642187178134,	-0.0330072827637195,	0.0417792946100234,	0.0799639821052551,	-0.0364540182054042,	-0.032729934900999,	0.0546844750642776,	-0.150451883673667,	-0.0403517112135887,	0.0707069933414459,	0.120208099484443,	0.145088121294975,	-0.0330141112208366,	-0.0200229417532682,	0.0110429124906659,	-0.0408196784555912,	0.0987321585416793,	0.119737684726715,	0.084658958017826,	-0.0438657216727733,	-0.016187934204936,	-0.0849164575338363,	-0.0196488555520772,	0.0223859697580337,	-0.0762115642428398,	-0.00350901018828153,	0.0646508932113647,	0.0669304579496383,	-0.05574606731534,	0.0654839500784873,	-0.0564779229462146,	-0.0940725356340408,	-0.0436767451465129,	0.122545145452022,	0.0377662219107151,	0.115177601575851,	0.0470279157161712,	-0.0323705524206161,	-0.0572488382458686,	0.0317866988480091,	0.0792981833219528,	0.0601533390581607,	0.126434803009033,	0.155499279499053,	0.102463707327842,	0.0691570788621902,	0.0374588817358016,	0.0547044798731803,	0.00963270477950572,	0.0959545150399208,	0.0925035700201988,	0.0479020327329635,	0.0575135871767997,	-0.0224606487900018,	-0.00511361332610249,	0.0758044049143791,	0.0106584820896387,	-0.0214195102453231,	-0.0464147441089153,	-0.0258593708276748,	0.113198295235633,	-0.0940503999590873,	0.060634721070528,	-0.0703340768814086,	-0.0174355469644069,	0.0360952131450176,	-0.0994996279478073,	-0.0776403471827507,	-0.0712616965174674,	0.0530644170939922,	-0.0551865845918655,	-0.0496666245162487,	0.0651212334632873,	0.129389256238937,	0.0576496869325637,	-0.00652596214786171,	0.0824397727847099,	-0.0750417411327362,	0.0488461926579475,	-0.0526663549244403,	-0.109603054821491,	-0.0244505479931831,	-0.0580848231911659,	-0.109120786190032,	0.0412764512002468,	0.00247233361005783,	-0.089238554239273,	-0.119507119059562,	0.173299863934516,	0.0166979655623435,	-0.0577732622623443,	0.00996349193155765,	-0.0573727637529373,	0.0672266483306884,	-0.101581938564777,	0.00181878346484154,	0.0372703857719898,	0.126573368906974,	0.120815470814704,	-0.0445547699928283,	-0.0455769971013069,	0.0175650771707296,	0.131518751382827,	-0.0623773448169231,	0.16468633711338,	0.0270853824913501,	0.00386967905797064,	-0.0222657248377799,	-0.0620775483548641,	-0.041277676820755,	-0.034983217716217,	-0.080997422337532,	0.00701930094510316,	-0.0160744190216064,	0.134231492877006,	0.0881662219762802,	0.0429982915520668,	-0.0098443953320384,	-0.0117731373757123,	-0.149698764085769,	0.0775717720389366,	0.0980875864624977,	0.0475315451622009,	0.0953250080347061,	-0.0411892831325531,	-0.122962355613708,	0.00546185486018657,	-0.107076853513717,	0.0851180851459503,	0.091071143746376,	-0.065698929131031,	0.0881035178899765,	-0.0116231963038444,	-0.142689302563667,	0.0498655028641223,	-0.0469988510012626,	-0.0481298938393592,	0.060414619743824,	0.0261886566877365,	0.101415902376174,	-0.0636168792843818,	-0.132236883044242,	-0.00891454517841339,	-0.0942060202360153,	-0.052097100764513,	0.0564096234738826,	0.00888156984001398,	-0.0461756438016891,	-0.166940793395042,	-0.159757196903228,	-0.0760701969265937,	-0.130082860589027,	0.0300645064562559,	-0.0187776014208793,	-0.157700225710868,	-0.0273148957639932},
{0.156726598739624,	0.00538190454244613,	0.0502684861421585,	0.138306677341461,	0.0027672026772052,	0.0245822351425886,	0.092409573495388,	-0.0275403447449207,	0.0491016432642936,	0.0879278406500816,	0.041056852787733,	0.0786337554454803,	0.00900610163807868,	0.0448840074241161,	0.10446973145008,	0.0649375915527343,	-0.158390432596206,	-0.0490606687963008,	-0.0384402088820934,	-0.180960580706596,	-0.0263636875897645,	0.0254615135490894,	0.0148309133946895,	-0.00982220284640789,	-0.109850540757179,	-0.0872178077697753,	-0.0171570144593715,	-0.193095177412033,	-0.0323339365422725,	0.115090787410736,	0.0618772879242897,	0.067138597369194,	-0.125676110386848,	-0.165256902575492,	-0.0639901682734489,	0.023741515353322,	-0.0417596437036991,	0.0850669667124748,	0.0410819165408611,	0.130760863423347,	0.0774606019258499,	-0.0500532016158103,	-0.0486876778304576,	-0.0504428707063198,	0.0135912345722317,	-0.0235611293464899,	0.063689686357975,	-0.0212058573961257,	0.0787325128912925,	0.0741091147065162,	0.0138295134529471,	0.103696264326572,	-0.0691967606544494,	-0.083788976073265,	-0.177524238824844,	0.0493815131485462,	0.0434401668608188,	0.0121810501441359,	-0.00619428465142846,	0.17495772242546,	-0.0527591928839683,	-0.0968946516513824,	0.0160275604575872,	-0.119249038398265,	0.0619692802429199,	0.149510085582733,	-0.0138382874429225,	0.0946788638830184,	-0.124152369797229,	-0.102000638842582,	-0.0787696242332458,	-0.205483838915824,	0.154325440526008,	0.0193385668098926,	-0.107591941952705,	0.079604834318161,	-0.0915382429957389,	-0.10288593918085,	-0.084640547633171,	-0.219067752361297,	-0.0302525237202644,	0.00874949060380458,	-0.17634779214859,	0.0351769253611564,	-0.0937634035944938,	-0.0570809915661811,	-0.0488846115767955,	-0.0374084971845149,	0.0167915001511573,	0.119006291031837,	-0.0980989784002304,	-0.0537370182573795,	-0.0773931518197059,	-0.174794360995292,	0.012022471986711,	-0.0596912615001201,	0.0742748007178306,	-0.0568158887326717,	-0.0150443529710173,	-0.0486341677606105,	-0.194674119353294,	-0.0494807735085487,	0.0387789122760295,	-0.0306216571480035,	-0.023220544680953,	0.00204776506870985,	-0.178254395723342,	0.058425024151802,	-0.0314114429056644,	-0.0844363197684288,	-0.1461973041296,	-0.199704572558403,	-0.00933757424354553,	-0.0813106596469879,	-0.179361641407012,	-0.0910654813051223,	-0.0554909296333789,	0.0172851532697677,	0.0209520254284143,	-0.0672703459858894,	-0.0323533527553081,	-0.0544101670384407,	-0.0891963616013526,	0.0492833293974399,	-0.0848175883293151,	-0.167397662997245,	0.0303057543933391,	0.0207696519792079,	0.0364836864173412,	0.0641424506902694,	-0.0168866477906703,	0.0562690831720829,	-0.0575858615338802,	-0.044757530093193,	0.0342994853854179,	0.0407354794442653,	-0.0113469222560524,	-0.0328675843775272,	-0.00903874821960926,	0.0204653516411781,	0.0705932080745697,	-0.0518703572452068,	-0.122934743762016,	-0.11305945366621,	0.131079018115997,	0.132627889513969,	-0.137829646468162,	0.0259412080049514,	-0.0872502624988555,	0.028134036809206,	-0.0229513235390186,	-0.148339092731475,	0.0698300004005432,	0.0604923777282238,	0.0553075112402439,	0.15235136449337,	0.0600573718547821,	-0.0160296484827995,	-0.0490714870393276,	0.000531661207787692,	0.120756603777408,	0.0628037080168724,	-0.0203099623322486,	0.053529854863882,	0.00464182021096348,	-0.0817388221621513,	0.0502093806862831,	-0.0157922841608524,	0.0836191847920417,	0.109061270952224,	-0.0213242974132299,	0.0299339294433593,	0.0987317562103271,	0.115116819739341,	0.0198578778654336,	0.0777863040566444,	-0.0786495208740234,	0.0249871369451284,	0.060349516570568,	0.057509534060955,	0.0791689902544021,	0.147275283932685,	0.0822317972779273,	0.207031860947608,	0.0270254649221897,	0.0143391555175185,	0.0385985746979713,	0.0531784035265445,	0.155160278081893,	0.0917028039693832,	0.104126147925853,	0.202596381306648,	-0.0204955954104661,	0.090161919593811,	0.0879009962081909,	0.0120435962453484,	-0.0188855044543743,	0.130421295762062,	0.12274182587862,	0.067603163421154,	-0.0739474296569824,	0.0819437131285667,	0.0625929310917854,	-0.0875278115272521,	0.0460658259689807,	-0.0198266636580228,	-0.0625007301568984,	0.128330275416374,	-0.0458604209125041,	0.0537598356604576,	0.113110460340976,	-0.13393086194992,	-0.00598408980295062,	0.0913547277450561,	0.124766893684864,	0.0492188148200511,	-0.0723654329776763,	-0.0133473547175526,	-0.0308511797338724,	-0.0374793633818626,	-0.106595188379287,	-0.0971285104751586,	-0.01566400565207,	0.0313205793499946,	0.0799286365509033,	-0.0530672520399093,	-0.0686008483171463,	-0.00399753637611865,	-0.00151234655641019,	-0.100839622318744,	-0.0897121503949165,	0.0905249118804931,	0.03433333709836,	0.0829479321837425,	-0.131542280316352,	0.125758677721023,	-0.0229423288255929,	-0.0488802269101142,	-0.104479774832725,	-0.0764459371566772,	0.082653596997261,	0.0132874874398112,	-0.00735090114176273,	0.136356830596923,	0.0185758993029594,	0.0258812047541141,	0.0964860320091247,	-0.0944821238517761,	0.0469350479543209,	-0.0345694534480571,	-0.126406267285346,	0.133913353085517,	-0.0437235422432422,	-0.160354450345039,	-0.0698045715689659,	-0.0844787806272506,	0.0546889714896678,	0.154492273926734,	-0.0586490966379642,	0.166268900036811,	-0.0828974172472953,	-0.0384115017950534,	0.0493340604007244,	-0.140668466687202,	0.132361784577369,	0.0348846279084682,	0.102486319839954,	0.120514556765556,	0.0525149777531623,	-0.0472179651260375,	0.0919507145881652,	-0.116592787206172,	0.113518975675106,	-0.0288960449397563,	-0.166015431284904,	0.0558008924126625,	-0.020027657970786,	-0.135029956698417,	-0.214958861470222,	-0.152640357613563,	0.055554062128067,	0.0884550437331199,	-0.164522007107734,	0.0316275991499423,	-0.0143428249284625,	0.0468226633965969,	0.0929067879915237,	0.0234840903431177,	-0.0600064136087894,	0.0992147177457809,	0.00906538311392068,	-0.0128341587260365,	-0.165852412581443,	0.00567663647234439,	0.0125471977517008,	-0.00248589506372809,	0.0034911036491394,	0.00102586974389851,	0.00198729033581912,	-0.0318071469664573,	0.0315413624048233,	-0.116993129253387,	0.0959327742457389,	-0.00122202886268496,	0.00708244461566209,	0.108600109815597,	0.00603847438469529,	0.0135227153077721,	-0.0166865047067403,	-0.00271938252262771,	0.0786229223012924,	-0.0906145721673965,	0.0647654756903648,	0.0484846159815788,	-0.0994574055075645,	0.0552327930927276,	-0.0540625602006912,	-0.097367987036705,	-0.0564962439239025,	-0.131347075104713,	0.0962935388088226,	0.113091431558132,	-0.0977320596575736,	0.115968219935894,	0.00226579932495951,	-0.0656710416078567,	0.00882295425981283,	-0.0487941540777683,	0.0289806965738534,	0.123096510767936,	-0.0273988153785467,	0.067121110856533,	-0.113965086638927,	-0.0603959932923316,	-0.00884223729372024,	-0.141769990324974,	-0.0359548442065715,	0.0338022969663143,	-0.0801026746630668,	0.0101181492209434,	-0.111300773918628,	0.0173480417579412,	-0.00669630663469433,	-0.0448467619717121,	0.0315988287329673,	-0.00741512095555663,	-0.130992665886878,	0.116851232945919,	-0.0620059967041015,	-0.0686703249812126,	-0.0867621004581451,	-0.0694099515676498,	0.0447628535330295,	0.130393624305725,	-0.0509809292852878,	0.00138402148149907,	0.0098299067467451,	-0.0786012485623359,	0.0325743183493614,	0.0242061503231525,	0.0774488002061843,	0.0383741371333599,	-0.0883367285132408,	-0.0245320443063974,	-0.220414355397224,	-0.152876004576683,	-0.132396802306175,	-0.152114003896713,	-0.00105816300492733,	0.0619784370064735,	-0.0790716782212257,	0.0306616686284542,	-0.114210486412048,	0.0101330298930406,	-0.184231266379356,	-0.00459474930539727,	0.0285379774868488,	-0.104226887226104,	-0.151438251137733,	0.0354939326643943,	-0.0313572138547897,	-0.0569760240614414,	-0.0769106000661849,	-0.0896695554256439,	0.0259781330823898,	0.0353010892868041,	-0.101396545767784,	-0.0325681045651435,	-0.0590932257473468,	-0.0442721210420131,	0.0370696745812892,	0.0263735502958297,	-0.103344000875949,	0.0498750768601894,	-0.0216074436902999,	-0.117878414690494,	-0.0570708625018596,	-0.0840538442134857,	-0.0418691188097,	-0.10963474959135,	0.0352248847484588,	0.00247889338061213,	-0.0307962074875831,	-0.041869431734085,	-0.130480095744132,	-0.028514789417386,	0.162214055657386,	-0.0311451405286788,	-0.0983204022049903,	-0.0275509990751743,	-0.0755529403686523,	-0.0112807694822549,	0.0344764254987239,	0.11561345309019,	0.0842366442084312,	-0.0414855703711509,	-0.0411146320402622,	0.0698563754558563,	0.0720522105693817,	-0.0560091100633144,	-0.0531114935874938,	0.0763097703456878,	-0.151756972074508,	-0.0829520225524902,	-0.0518648289144039,	0.0243406146764755,	0.118978545069694,	-0.0517621599137783,	0.115996450185775,	0.0929060950875282,	0.0305541418492794,	0.0841417908668518,	0.0653948336839675,	-0.0783222913742065,	-0.0689907968044281,	-0.0215590894222259,	-0.0784599557518959,	-0.00880712922662496,	0.0854271948337554,	0.053591102361679,	0.0116238538175821,	-0.120223492383956,	0.0360405929386615,	0.0395988188683986,	0.054516565054655,	-0.170902043581008,	-0.00138443137984722,	-0.0424489714205265,	-0.0759226903319358,	-0.0819189473986625,	-0.0210621692240238,	-0.124430932104587,	-0.22617295384407,	-0.206304162740707,	0.0074833040125668,	-0.159925386309623,	-0.0533373728394508,	0.0113837029784917,	-0.165067613124847,	-0.0889486223459243,	-0.102995477616786,	-0.124713443219661,	-0.258959919214248,	-0.217251732945442,	-0.000371391448425129,	-0.0958971381187438,	-0.133584916591644,	0.0673290640115737,	-0.229992032051086,	-0.156279698014259,	-0.108478255569934,	-0.1147206351161,	0.0509455315768718,	-0.0853187441825866,	-0.163910165429115,	0.0437966212630271,	-0.0866895243525505,	-0.205137386918067,	-0.122216239571571,	-0.167588055133819,	0.0891638845205307,	0.13374225795269,	-0.224986717104911,	0.0315786190330982,	-0.180349051952362,	-0.207318380475044,	-0.0719207599759101,	-0.168615728616714,	0.188787296414375,	0.203372687101364,	-0.16640818119049,	0.250205487012863,	-0.245364308357238,	-0.164990082383155,	-0.141551658511161,	-0.227250665426254,	0.198947042226791,	0.156669229269027,	-0.167777016758918,	0.156845718622207,	-0.0179387759417295,	0.0847202762961387,	0.0162601340562105,	0.0253287125378847},
{-0.0101079195737838,	0.0342020466923713,	0.10145665705204,	-0.0328158549964427,	-0.0220301821827888,	0.0195892546325922,	0.0192298684269189,	0.069309078156948,	-0.160404533147811,	-0.0437630377709865,	-0.0160396136343479,	-0.0140738170593976,	0.0906759798526763,	-0.0564972534775733,	-0.0689928457140922,	0.0111808637157082,	0.0215520672500133,	-0.0440878979861736,	0.0276979058980941,	-0.0381428524851799,	-0.00129363709129393,	0.0455088280141353,	-0.0721304416656494,	0.0966505408287048,	-0.122881770133972,	0.00758249219506978,	0.0540041550993919,	0.0366264022886753,	-0.0141269052401185,	-0.177785173058509,	-0.21638485789299,	0.025594437494874,	0.0754036158323287,	0.0219664759933948,	0.0183554552495479,	0.0152461770921945,	-0.0328572355210781,	-0.151195645332336,	0.00656706746667623,	-0.140171125531196,	0.0932623371481895,	-0.0214709863066673,	-0.0369346886873245,	0.144486516714096,	-0.0238280445337295,	-0.0171019546687602,	-0.0519185028970241,	0.0381360352039337,	-0.0368462279438972,	0.0183438304811716,	0.019205018877983,	-0.0335118249058723,	0.123933903872966,	0.0793194398283958,	0.0661634877324104,	-0.0123247373849153,	0.0327292382717132,	-0.0682944878935813,	0.0524479448795318,	-0.103926122188568,	-0.0132403038442134,	-0.0643642842769622,	-0.0811789035797119,	0.0811777710914611,	-0.158629864454269,	-0.162931859493255,	0.0228816252201795,	-0.00428659468889236,	-0.0326408371329307,	0.00496942363679409,	0.0318413525819778,	0.105508171021938,	-0.0961419120430946,	0.0270476154983043,	-0.00589026464149355,	0.00460085133090615,	0.0972404405474662,	-0.0167788919061422,	0.100701592862606,	0.00614519603550434,	0.0269555244594812,	-0.0946077331900596,	0.0164407454431056,	-0.107593491673469,	0.108479067683219,	0.0926612690091133,	0.0753540396690368,	0.0469706580042839,	-0.104622565209865,	-0.115243941545486,	-0.0122591601684689,	-0.141344860196113,	0.0405364222824573,	0.0771452486515045,	0.0426472090184688,	0.0272547006607055,	-0.156555041670799,	-0.0112355630844831,	0.0796713158488273,	-0.157260224223136,	0.0238479934632778,	0.14242273569107,	-0.0120256328955292,	0.0399320125579833,	-0.0555621683597564,	-0.072819098830223,	-0.0171883404254913,	-0.166702881455421,	0.110108934342861,	0.125091969966888,	0.0189326032996177,	0.150903061032295,	-0.146692857146263,	-0.000166261917911469,	0.0171606037765741,	-0.0524169914424419,	0.143364980816841,	-0.00994552206248044,	0.0361205674707889,	-0.053121879696846,	-0.158902630209922,	-0.140691697597503,	-0.0192157942801713,	0.0403359085321426,	0.137885838747024,	0.0743709877133369,	0.00711667584255337,	0.0352588593959808,	-0.0688128769397735,	-0.0191585756838321,	0.0235684756189584,	-0.0628664046525955,	-0.043436199426651,	-0.0351969562470912,	0.0924287289381027,	0.0428054109215736,	0.0435596443712711,	-0.0630806684494018,	0.0363055169582366,	-0.0835868790745735,	0.0443666838109493,	0.0967124700546264,	0.184112071990966,	0.128554418683052,	-0.0411811359226703,	-0.0507952645421028,	0.0253997277468442,	0.0255084801465272,	0.0374893471598625,	0.0412367172539234,	0.188722625374794,	0.00692273210734128,	0.044589590281248,	-0.131046384572982,	0.0794591754674911,	-0.0527631528675556,	0.0225617606192827,	0.123357154428958,	0.102656342089176,	0.0650630816817283,	0.100953184068202,	0.133952289819717,	0.0829050615429878,	-0.0112450756132602,	0.0213858243077993,	-0.023634260520339,	-0.0261613260954618,	0.00760163227096199,	0.0101258242502808,	0.0675080642104148,	0.160704612731933,	-0.0169794969260692,	0.0416447445750236,	0.0624566003680229,	-0.0160818900913,	-0.023984108120203,	0.0181691255420446,	0.0716346055269241,	-0.00704944599419832,	-0.0348933450877666,	0.00527249556034803,	-0.0319125838577747,	-0.226307556033134,	0.0512893497943878,	-0.0230784621089696,	0.0487139783799648,	0.0458669923245906,	0.130563393235206,	-0.0916425064206123,	-0.0359696298837661,	-0.165077254176139,	0.0374275930225849,	0.12789462506771,	0.102053299546241,	-0.128077894449234,	0.0285631157457828,	-0.0631868541240692,	0.0355125404894351,	-0.0430188551545143,	-0.106692142784595,	0.0406983271241188,	-0.0275399331003427,	0.0527974925935268,	0.097579002380371,	0.00929685682058334,	-0.00623132847249507,	-0.0536726042628288,	0.0159397162497043,	0.114553168416023,	0.0711986646056175,	0.0203669611364603,	0.0790317431092262,	0.0569342412054538,	-0.0160898156464099,	-0.0945456400513648,	-0.0545004196465015,	0.0263007562607526,	0.0253972075879573,	0.0622412674129009,	0.103898279368877,	0.0618159994482994,	0.0879473313689231,	0.0431539304554462,	0.0674330815672874,	0.0920877158641815,	-0.00374661129899322,	0.0848609581589698,	-0.0280760005116462,	-0.0316467359662055,	0.162464827299118,	0.0829559192061424,	0.00869776960462331,	-0.0656673610210418,	-0.101687252521514,	0.0420806929469108,	-0.0669717714190483,	0.0812121406197547,	0.15190289914608,	0.174531161785125,	0.126938045024871,	-0.0167007502168416,	-0.137195482850074,	0.0343884676694869,	-0.092544563114643,	-0.00978796556591987,	0.0785272121429443,	0.000137907249154523,	0.0564376302063465,	0.0558486320078372,	0.0462721921503543,	0.090752936899662,	-0.0175070781260728,	0.11208476126194,	0.150087818503379,	-0.0171249974519014,	-0.0475116297602653,	-0.0738561302423477,	-0.0723936483263969,	0.0690378248691558,	-0.0577087476849555,	-0.0804993584752082,	0.00345084513537585,	-0.0108642345294356,	0.0260860901325941,	-0.0123085929080843,	-0.0346443802118301,	-0.0966153740882873,	-0.0933434590697288,	-0.0705908015370368,	-0.0884951427578926,	-0.0925192981958389,	-0.144111856818199,	0.0819520205259323,	0.00484407227486371,	-0.0390140675008296,	-0.031775914132595,	-0.0916649922728538,	-0.120130844414234,	0.00362021848559379,	-0.00196088338270783,	0.118279039859771,	-0.0160362217575311,	-0.0551347769796848,	0.0380745232105255,	-0.0153717659413814,	-0.0762124583125114,	-0.103779576718807,	-0.159024283289909,	0.123405277729034,	0.151385843753814,	-0.0175862833857536,	0.137709811329841,	-0.0273068249225616,	-0.0722220838069915,	-0.238453075289726,	-0.208945497870445,	0.171550959348678,	-0.0657127052545547,	-0.0485779531300067,	-0.0245852880179882,	-1.18225034384522E-05,	-0.00403631338849663,	-0.070091463625431,	-0.00212696706876158,	-0.0355400592088699,	0.0208028703927993,	-0.0665622577071189,	0.00813139136880636,	0.00480297626927495,	0.0293709076941013,	-0.206694424152374,	-0.102389365434646,	0.0749096423387527,	0.00233116326853632,	0.024899773299694,	0.116837866604328,	-0.116122476756572,	-0.00471042236313223,	-0.0526094883680343,	-0.0222218781709671,	0.025968886911869,	0.0956703200936317,	-0.117066822946071,	-0.0168676357716321,	-0.0434906035661697,	-0.156412810087203,	-0.028630468994379,	-0.0586724318563938,	-0.0241210404783487,	0.0136907286942005,	0.0135640557855367,	0.111926481127738,	0.0260340385138988,	-0.121601946651935,	-0.000263641675701364,	-0.0188923832029104,	-0.0216095391660928,	0.0892941057682037,	-0.118404790759086,	0.0514882318675518,	-0.088944561779499,	-0.115882650017738,	-0.174741446971893,	0.0106749003753066,	-0.0403839349746704,	-0.0276262760162353,	0.034799613058567,	-0.0302524697035551,	-0.139463141560554,	-0.100060276687145,	0.014685639180243,	-0.0208069588989019,	0.0575560964643955,	0.069312997162342,	-0.0973801538348197,	0.0421989224851131,	-0.0168545506894588,	-0.145305261015892,	-0.0885271579027175,	-0.107031613588333,	0.0322497934103012,	0.0778940171003341,	0.0521062687039375,	0.0536133907735347,	0.112387686967849,	0.105850383639335,	-0.0134570877999067,	-0.022910276427865,	0.0426349118351936,	0.0552361570298671,	0.0512860156595706,	-0.0371866635978221,	-0.00671938713639974,	-0.0342404097318649,	-0.0107034230604767,	0.019827626645565,	-0.102916166186332,	-0.00310622039251029,	-0.0595941208302974,	0.112360335886478,	0.0562732629477977,	0.0358149372041225,	-0.208979249000549,	0.027591111138463,	-0.015747046098113,	0.0945166125893592,	0.0292110368609428,	0.00680038752034306,	-0.0733677968382835,	-0.135545924305915,	0.0295191295444965,	0.0105664655566215,	0.0410688295960426,	-0.0637905523180961,	-0.109918817877769,	0.0395335704088211,	-0.152168467640876,	-0.112210474908351,	-0.174984887242317,	-0.0561054311692714,	0.117254696786403,	-0.0396507307887077,	-0.0797087252140045,	0.0624606236815452,	-0.181561782956123,	-0.141323998570442,	-0.274019837379455,	-0.0376705639064311,	0.0419350303709506,	0.0904436558485031,	-0.118229530751705,	0.0664737150073051,	-0.0995213761925697,	-0.0885298550128936,	-0.107314608991146,	-0.205909565091133,	-0.0366409942507743,	-0.0479720011353492,	-0.0605767108500003,	0.00368621153756976,	0.0173832587897777,	0.0728150978684425,	0.0679601803421974,	-0.0978125110268592,	0.00367274275049567,	0.123497709631919,	-0.104555316269397,	-0.00148447998799383,	-0.0161105785518884,	-0.0157185103744268,	-0.0559671111404895,	-0.116108104586601,	0.0581130236387252,	-0.0507286079227924,	-0.0142948115244507,	-0.0314473584294319,	-0.0745806768536567,	-0.0280315745621919,	0.00975655484944581,	-0.0847638770937919,	-0.0731730386614799,	-0.0221509225666522,	-0.0633725821971893,	-0.0531951375305652,	-0.0807815045118331,	0.109036222100257,	0.120764560997486,	0.011410554870963,	-0.0712852999567985,	-0.119135454297065,	0.083550676703453,	-0.147215992212295,	-0.0214665122330188,	0.00557067990303039,	0.0581477656960487,	0.0365447588264942,	-0.0590491779148578,	-0.0172376297414302,	0.0643772333860397,	-0.0251870900392532,	0.0078859319910407,	0.0527332574129104,	-0.018398180603981,	0.0332810319960117,	-0.058553323149681,	0.0165008176118135,	-0.0443338826298713,	0.0620711036026477,	0.0202704407274723,	-0.102655939757823,	0.0702220275998115,	-0.0547266826033592,	-0.0907911658287048,	0.0297752488404512,	0.044790793210268,	-0.0281611494719982,	-0.0897686555981636,	0.0642170459032058,	-0.062941201031208,	0.0707349926233291,	-0.0646567791700363,	0.0953399613499641,	-0.0432996451854705,	-0.120871908962726,	0.0639593750238418,	-0.0161127187311649,	-0.0216792523860931,	0.0650618076324462,	-0.11282580345869,	-0.00879493821412324,	0.034572347998619,	-0.073773019015789,	-0.0268034841865301,	-0.015395849943161,	0.0368451811373233,	-0.0147802913561463,	0.00937719363719224,	-0.00173514487687498,	0.0162212550640106,	-0.0299498941749334,	-0.00913205929100513,	0.0121843852102756,	-0.11238519847393,	-0.0517825447022914},
{0.0764544680714607,	0.066156767308712,	-0.0594810843467712,	0.0810438022017478,	-0.0580668225884437,	-0.0760763511061668,	0.00909824762493371,	-0.134147942066192,	0.211828336119651,	0.093677707016468,	0.0756440311670303,	-0.0115023059770464,	-0.041470531374216,	-0.061343491077423,	-0.105222456157207,	-0.0411435738205909,	-0.0436555780470371,	0.0765894800424575,	0.024225516244769,	0.0495266877114772,	0.006770895794034,	-0.0887856408953666,	0.134099721908569,	0.0338169038295745,	-0.128176763653755,	-0.151643186807632,	-0.0220636688172817,	-0.131720378994941,	-0.0067910379730165,	0.0262722801417112,	0.133348450064659,	0.0270950570702552,	-0.178129717707633,	-0.150547310709953,	-0.0693044438958168,	-0.0815613865852355,	0.0550256520509719,	0.0829281955957412,	0.0527551956474781,	-0.0338537879288196,	-0.013464561663568,	-0.00305593339726328,	0.0463329888880252,	-0.00564577057957649,	0.150456100702285,	0.00614211382344365,	0.141387179493904,	0.0305539574474096,	0.0240336656570434,	-0.0165949668735265,	0.113177806138992,	-0.0774638578295707,	0.04253950715065,	-0.0913264602422714,	-0.0679735019803047,	0.106557555496692,	-0.0941995307803153,	-0.0609899945557117,	-0.0939163267612457,	-0.0282575655728578,	-0.104827374219894,	0.0902649015188217,	-0.0505244024097919,	-0.0282925833016633,	0.0100659737363457,	0.0405894741415977,	-0.022147249430418,	-0.0253124125301837,	0.0424085035920143,	-0.0464350208640098,	-0.141923323273658,	-0.00558178592473268,	-0.0253497939556837,	0.0171953830868005,	0.00167830230202525,	0.0781108364462852,	-0.0903706401586532,	-0.0264832843095064,	-0.103450953960418,	-0.0524414889514446,	-0.0332951471209526,	0.0237083211541175,	0.0561205372214317,	-0.0757202729582786,	-0.0276282131671905,	-0.104426950216293,	-0.0770234391093254,	-0.0202222429215908,	-0.0376692935824394,	-0.0390705354511737,	-0.011345443315804,	0.0530519410967826,	-0.102937497198581,	-0.0172595866024494,	-0.0411075465381145,	-0.0423648506402969,	0.0174810662865638,	0.0824011489748954,	0.0623896457254886,	0.0302156507968902,	-0.0430434755980968,	-0.163555324077606,	-0.0347788482904434,	-0.139235824346542,	0.040448572486639,	0.0604038164019584,	-0.0757922530174255,	-0.0318609774112701,	0.0386524423956871,	-0.123319514095783,	-0.0760590136051177,	-0.110714338719844,	-0.0430693738162517,	-0.0696697235107421,	-0.162403330206871,	-0.00258619058877229,	-0.0791596323251724,	-0.038570649921894,	-0.121391110122203,	-0.0444104075431823,	-0.0503218546509742,	0.0770678669214248,	0.0175858754664659,	-0.0327987559139728,	0.0196976494044065,	-0.193646058440208,	-0.124785892665386,	-0.0799835324287414,	0.0493040084838867,	-0.0226459000259637,	-0.150863111019134,	0.0599874779582023,	-0.00274855899624526,	-0.124283626675605,	-0.11208114773035,	-0.133242949843406,	-0.0510948114097118,	0.011904158629477,	-0.0448587648570537,	0.00242310343310236,	1.98059206013567E-05,	-0.0421611554920673,	-0.17234268784523,	0.072588674724102,	-0.0643196403980255,	0.078207328915596,	-0.0930998176336288,	-0.074278749525547,	-0.0430729500949382,	-0.0287636928260326,	-0.169370353221893,	-0.0296876206994056,	-0.0480135455727577,	-0.0483131557703018,	-0.117923654615879,	0.0192302111536264,	0.00199813768267631,	-0.105659119784832,	0.109060309827327,	-0.100804835557937,	0.0630665346980094,	0.0342095978558063,	-0.0807787179946899,	-0.0107664912939071,	-0.106057666242122,	-0.090050496160984,	-0.0411605387926101,	-0.0481605529785156,	-0.0193268787115812,	-0.0390814058482646,	-0.0340966433286666,	0.0377543307840824,	-0.0806729346513748,	-0.0521344169974327,	0.0685464963316917,	0.010859060101211,	0.0392790362238883,	0.026379169896245,	0.0747409909963607,	-0.0202887188643217,	0.103900484740734,	0.0334585569798946,	0.200508296489715,	0.0744052752852439,	-0.0100430808961391,	0.0168993640691041,	0.0224374551326036,	0.0425341427326202,	-0.00231493916362524,	0.121541664004325,	0.00869678054004907,	0.0706304535269737,	0.0376573279500007,	0.0759392455220222,	-0.00499848974868655,	0.0703717172145843,	0.0107335057109594,	0.145937442779541,	0.0505843833088874,	0.11062891036272,	0.00200565787963569,	-0.0536980628967285,	0.15107937157154,	0.0453794971108436,	0.0714002102613449,	0.0942911058664321,	0.0785135626792907,	0.159166887402534,	0.0130971819162368,	0.0241540316492319,	-0.0552471578121185,	-0.0121703436598181,	0.0996609479188919,	0.017945809289813,	0.00872169341892004,	0.0390561334788799,	0.071230448782444,	-0.100766472518444,	-0.00641013542190194,	-0.0149811254814267,	-0.0227117240428924,	0.110115937888622,	-0.14684709906578,	-0.024943271651864,	0.0843116119503974,	-0.0867774486541748,	0.126646637916564,	-0.00771049223840236,	0.0886416733264923,	-0.0374886766076087,	-0.0765074267983436,	0.0506126135587692,	-0.0589272007346153,	0.0434748232364654,	0.00257473695091903,	-0.0120842149481177,	-0.0340606942772865,	-0.13132806122303,	-0.143304422497749,	-0.0865910947322845,	0.0723525360226631,	0.0335070453584194,	-0.104984246194362,	0.0621889494359493,	0.0440495535731315,	-0.0665910169482231,	0.0086345886811614,	-0.0876483544707298,	-0.0406324341893196,	0.0665356591343879,	-0.0843899697065353,	0.0942647755146026,	-0.114452630281448,	0.00281619373708963,	-0.116857044398784,	0.0816358178853988,	-0.012585119344294,	0.170855551958084,	-0.108461394906044,	0.0268152169883251,	-0.118899084627628,	0.0676260590553283,	-0.0253413952887058,	0.10399205982685,	0.16277228295803,	0.11884419620037,	-0.0438208170235157,	0.0660426095128059,	-0.0966219753026962,	-0.0327894017100334,	0.0325253009796142,	-0.0529699511826038,	-0.00457038264721632,	0.0922575145959854,	-0.105375796556472,	0.121056780219078,	0.0361688919365406,	-0.133931457996368,	0.000494431413244456,	0.0230994876474142,	-0.0216269996017217,	0.0994190424680709,	-0.0627825036644935,	-0.0765799060463905,	-0.0376518964767456,	0.0939332991838455,	0.0654682517051696,	-0.104111559689044,	0.0686748474836349,	0.000279347819741815,	-0.0247383154928684,	0.0461038760840892,	-0.0209684874862432,	0.0535056889057159,	-0.0270733833312988,	0.0624209083616733,	-0.0845676735043525,	0.0230207201093435,	0.00706898514181375,	0.0586084388196468,	0.0276294499635696,	-0.0943425223231315,	0.0923428833484649,	-0.0485418699681758,	-0.0382796861231327,	-0.0884519666433334,	0.00999835692346096,	0.0545859262347221,	-0.0921726822853088,	0.0711602717638015,	0.05212277546525,	-0.106011971831321,	-0.082186222076416,	-0.0959946438670158,	0.0126117104664444,	-0.0365611165761947,	-0.0304889436811208,	0.0934477224946022,	-0.103581190109252,	-0.0663927420973777,	0.0644895881414413,	0.0583243779838085,	0.0474963560700416,	0.131096839904785,	-0.0331746526062488,	0.0915101841092109,	-0.000967414933256804,	-0.0270057953894138,	0.166036620736122,	0.136336028575897,	-0.0180893391370773,	0.121191926300525,	0.0155019555240869,	-0.03138118237257,	-0.123524613678455,	-0.0256472472101449,	-0.00441204756498336,	0.105969123542308,	-0.101536691188812,	0.078299343585968,	-0.0590752661228179,	-0.00827394519001245,	-0.0187443792819976,	-0.053789660334587,	0.0307148229330778,	-0.0471806190907955,	-0.13748376071453,	0.115648530423641,	0.0365633778274059,	0.0485726632177829,	-0.104995034635066,	0.0385455340147018,	0.0811948627233505,	0.113813504576683,	-0.113703720271587,	0.139995202422142,	0.0236935410648584,	0.0924725607037544,	0.000543227419257164,	5.81208732910454E-05,	0.151679992675781,	-0.0380549132823944,	-0.0158635601401329,	0.0465167313814163,	-0.0802977904677391,	0.0662405267357826,	-0.11552632600069,	0.0409542210400104,	0.158394530415534,	0.0570562183856964,	-0.140497967600822,	-0.025933789089322,	-0.0288005769252777,	0.091284841299057,	-0.0434506200253963,	0.0623119063675403,	0.0945219695568084,	-0.0141079612076282,	-0.0313189812004566,	0.00635837484151124,	0.0395485647022724,	0.0454044491052627,	0.0413988940417766,	-0.182811379432678,	0.107833571732044,	0.110548965632915,	-0.00683759525418281,	-0.0077273934148252,	0.0535802654922008,	-0.0470265224575996,	0.0174834504723548,	-0.0897370725870132,	-0.0581764839589595,	0.0099195372313261,	-0.0890640914440155,	0.0662809386849403,	-0.0456603616476058,	-0.00413708481937646,	0.0086245285347104,	0.0172402318567037,	-0.0712680965662002,	-0.0264216102659702,	-0.11167611926794,	-0.0417372994124889,	-0.0654703602194786,	0.0322404950857162,	0.0765960663557052,	0.0212578140199184,	0.0839552506804466,	0.0116536114364862,	-0.0156919751316308,	-0.00160061568021774,	-0.0502039678394794,	0.0462541133165359,	0.0485648065805435,	-0.0370533764362335,	-0.11109135299921,	-0.0781908854842185,	0.0281642246991395,	-0.0294586196541786,	0.0241057109087705,	-0.108358636498451,	-0.0469059348106384,	-0.0485462732613086,	0.0880239382386207,	0.00848891306668519,	-0.00851812958717346,	0.110700145363807,	-0.0368268936872482,	-0.0405058339238166,	-0.080724112689495,	-0.00191613449715077,	-0.031414546072483,	0.0987041369080543,	0.0864457860589027,	0.0790971666574478,	0.0118128536269068,	0.0703027993440628,	0.0515660978853702,	0.103564277291297,	-0.023809153586626,	0.0345219932496547,	-0.024533674120903,	0.0926622450351715,	0.0101373884826898,	0.0105465920642018,	0.0037832879461348,	0.100120760500431,	-0.0580940172076225,	0.013537305407226,	-0.00549259968101978,	-0.017449140548706,	0.0328683778643608,	0.0426180213689804,	-0.130994439125061,	0.0195453912019729,	0.0528903901576995,	0.0327146314084529,	0.0537952110171318,	0.0819933265447616,	-0.0557423792779445,	-0.0106484936550259,	0.00320163578726351,	-0.0866501852869987,	0.0734167248010635,	-0.0628236308693885,	-0.0818587318062782,	-0.0228642951697111,	-0.0487520731985569,	-0.0995184555649757,	-0.103377997875213,	0.0520697757601737,	0.0334942862391471,	0.0577060580253601,	0.0398453585803508,	0.109897501766681,	0.0505277998745441,	-0.107371225953102,	0.0703854337334632,	0.0292208679020404,	0.0737781524658203,	-0.0595680214464664,	0.00026952160988003,	-0.0149319795891642,	0.0290687903761863,	-0.0278251264244318,	0.0688283219933509,	0.0307202897965908,	0.00438954401761293,	0.0289746392518281,	0.0776447653770446,	0.143163964152336,	-0.054639957845211,	0.0272909868508577,	0.0960921049118041,	0.0679701939225196,	0.115351326763629,	0.144874706864356,	0.0701638311147689,	0.0143852289766073,	0.133069187402725,	0.164285644888877,	0.146457746624946,	-0.0290583446621894},
{-0.0517146699130535,	-0.0558244921267032,	0.15249291062355,	-0.0492483898997306,	0.13526427745819,	-0.0160011630505323,	0.173051744699478,	-0.00128859083633869,	-0.24397750198841,	-0.161002337932586,	0.142796516418457,	-0.0279204621911048,	0.00680603086948394,	-0.0256882831454277,	0.141266047954559,	0.0910953655838966,	-0.110887765884399,	-0.109595000743865,	0.00365561246871948,	-0.115801818668842,	0.0461017787456512,	0.0151643631979823,	-0.0839504450559616,	0.0630920752882957,	0.0974205136299133,	0.0125613939017057,	0.0939629897475242,	0.00869622640311717,	-0.0360677540302276,	-0.108464084565639,	-0.19436453282833,	0.117747232317924,	0.0737945958971977,	0.107766903936862,	0.0855917632579803,	0.0149888452142477,	0.0303290337324142,	-0.0351376459002494,	0.0012516597053036,	-0.0878787785768508,	0.0876050218939781,	-0.0132048353552818,	0.0631177052855491,	0.179370746016502,	0.0420587211847305,	-0.0062404777854681,	-0.126007437705993,	-0.120120130479335,	0.0957485139369964,	0.122658520936965,	-0.0487967580556869,	-0.0385428443551063,	0.0436871945858001,	0.159731015563011,	0.103424727916717,	0.0230350457131862,	-0.00815051235258579,	0.0556699931621551,	-0.0632314383983612,	0.0568659417331218,	0.0504797771573066,	0.0643248781561851,	0.0666248425841331,	0.0939682871103286,	-0.0691685900092124,	0.0622682720422744,	-0.0375447608530521,	-0.0297688264399766,	-0.0290248729288578,	-0.0684908553957939,	0.0853523388504981,	0.0687998980283737,	-0.0620624497532844,	0.0386387109756469,	0.0416978299617767,	-0.0190411005169153,	-0.0595986470580101,	0.111227147281169,	-0.0021422142162919,	0.0824424624443054,	0.00544955814257264,	0.020706808194518,	-0.0643183588981628,	0.0549788884818553,	0.0396263226866722,	0.0759109482169151,	0.0211659036576747,	-0.00463740294799208,	-0.0180528275668621,	0.00788713153451681,	0.096730463206768,	0.103527180850505,	0.0445571243762969,	-0.0698134005069732,	-0.0391784682869911,	-0.0149000259116291,	0.0490357689559459,	0.0441284030675888,	-0.0291580334305763,	-0.0437425896525382,	0.0940479785203933,	-0.0351055078208446,	-0.0526206716895103,	-0.0609697774052619,	-0.0305140223354101,	0.0715045481920242,	0.0514413565397262,	0.0681270733475685,	-0.00816041976213455,	0.0244986675679683,	-0.107365936040878,	0.0343465507030487,	-0.0498614013195037,	0.0728876814246177,	0.150806918740272,	0.133402690291404,	0.0943769291043281,	-0.0564363189041614,	0.0963583588600158,	0.0755501389503479,	0.0546879731118679,	0.0842447653412818,	0.0460979677736759,	-0.0692003741860389,	0.125392287969589,	0.173812240362167,	-0.0144237047061324,	-0.0381922125816345,	0.0975047275424003,	0.0637019649147987,	0.104914344847202,	-0.0240508038550615,	0.041661936789751,	-0.024055428802967,	0.105099774897098,	0.115205280482769,	-0.0147320190444588,	0.0321755930781364,	0.0789662897586822,	0.112883679568767,	0.153428629040718,	0.0200536586344242,	0.130993500351905,	-0.00965826772153377,	-0.0740139111876487,	-0.0806639865040779,	0.125010356307029,	-0.0874788090586662,	0.123328976333141,	0.0338800996541976,	0.195344239473342,	0.0998884439468383,	-0.0541713386774063,	-0.0299708861857652,	0.12450098991394,	-0.0554846301674842,	0.122454985976219,	0.0279080457985401,	-0.0401794798672199,	-0.0127184381708502,	0.0238070525228977,	0.154105454683303,	-0.00706635694950819,	0.00376230548135936,	-0.0461244396865367,	0.0536452084779739,	-0.0320623517036437,	0.0351020917296409,	-0.0041380445472896,	-0.052626110613346,	0.0687265694141387,	-0.0465371906757354,	-0.0483006797730922,	0.0805252194404602,	-0.00924104638397693,	0.0078440997749567,	-0.0355831459164619,	0.109610117971897,	0.0369210578501224,	-0.00758484378457069,	0.0150139695033431,	-0.131353616714477,	-0.0762728527188301,	-0.114886999130249,	0.0904130190610885,	-0.00430915504693984,	-0.0654508173465728,	-0.0222143642604351,	-0.0210471786558628,	-0.0637063831090927,	-0.0291467905044555,	-0.0146676721051335,	-0.00163905252702534,	0.0891712307929992,	-0.122297398746013,	0.122347325086593,	0.0600125528872013,	-0.136308953166007,	-0.0640679448843002,	0.00719320774078369,	0.146079078316688,	0.0971365496516227,	-0.0984823480248451,	0.0531003922224044,	-0.100908733904361,	-0.133600935339927,	0.100955493748188,	-0.165802106261253,	0.13242869079113,	0.00493235141038894,	-0.0176964607089757,	0.165267631411552,	-0.148314893245697,	-0.109548166394233,	-0.0852502286434173,	-0.131618112325668,	0.0695877373218536,	0.0225845258682966,	0.0155625725165009,	0.0681284219026565,	-0.06593918800354,	-0.0244980975985527,	0.151296690106391,	-0.122671224176883,	0.118681550025939,	-0.0314178094267845,	0.0655515938997268,	-0.0762605965137481,	-0.00391381327062845,	0.0169931631535291,	0.141305059194564,	-0.0649714171886444,	0.102767959237098,	0.0426002405583858,	-0.0354538895189762,	-0.0269640497863292,	-0.0299350824207067,	-0.054248459637165,	0.0393415614962577,	0.00742614455521106,	0.0490378253161907,	-0.0439942926168441,	0.12427844107151,	-0.00532632227987051,	-0.0469058752059936,	0.000575919984839856,	0.0894232466816902,	-0.00562308588996529,	-0.0480988100171089,	-0.0444432981312274,	0.0337615683674812,	-0.0605067908763885,	0.0126442089676856,	0.100648619234561,	0.0038006012327969,	-0.0324661061167716,	-0.0649254992604255,	-0.0537832900881767,	-0.0749175772070884,	-0.0640534162521362,	-0.00985939893871545,	-0.16522479057312,	0.124508060514926,	-0.104100182652473,	-0.0572131089866161,	-0.110514804720878,	0.00995611120015382,	-0.00946655124425888,	-0.067629761993885,	0.0685919448733329,	-0.0875136852264404,	-0.0808212086558341,	-0.0405255928635597,	-0.0796699374914169,	-0.107739351689815,	-0.00989387929439544,	0.0518226996064186,	0.0270772762596607,	0.00716496352106332,	0.0772277042269706,	-0.0661420822143554,	0.0364800617098808,	0.0408041514456272,	-0.0106368791311979,	-0.0936943292617797,	-0.0731478556990623,	-0.00370985525660216,	0.0186905395239591,	-0.0467913672327995,	-0.0446735769510269,	0.0094059919938445,	0.0198304895311594,	-0.00853248126804828,	-0.0243762712925672,	-0.125916555523872,	0.0631530955433845,	0.00117614469490945,	-0.0324430353939533,	-0.145598202943801,	0.0220062136650085,	0.107314780354499,	0.023535244166851,	-0.018257750198245,	0.0803883224725723,	0.110905244946479,	-0.0415798015892505,	-0.0233184788376092,	0.111394695937633,	0.11939688026905,	0.0633151233196258,	-0.0342165865004062,	0.0518366917967796,	0.0925569012761116,	0.00612974679097533,	0.0354011133313179,	0.0541044846177101,	-0.0993203595280647,	-0.0192554369568824,	0.0746184438467025,	0.0700389146804809,	0.0876588299870491,	0.000420971075072884,	0.0275228600949048,	0.00291453045792877,	0.0334800407290458,	-0.0109599893912672,	-0.0539306290447711,	0.0905516147613525,	-0.117935515940189,	-0.12597469985485,	0.085430271923542,	0.0259392634034156,	0.0650032833218574,	0.0522437915205955,	0.124617844820022,	0.144348815083503,	-0.00577605701982975,	-0.117844671010971,	-0.00639654416590929,	0.0194523837417364,	0.0733949765563011,	0.109984472393989,	-0.100300386548042,	0.0254550110548734,	-0.0621399879455566,	-0.09503885358572,	0.0595576390624046,	0.0455292463302612,	0.0919660851359367,	-0.0256115589290857,	0.0740638971328735,	0.145652815699577,	-0.0448260307312011,	-0.0431398600339889,	0.060624573379755,	-0.0575126111507415,	0.0733172968029975,	-0.0795219093561172,	0.038463644683361,	0.0501007214188575,	-0.118330851197242,	-0.109340831637382,	-0.0258833095431327,	-0.167799562215805,	-0.0254682768136262,	0.0568796470761299,	0.067733809351921,	0.0193462632596492,	0.00363840186037123,	0.0149052897468209,	0.101511821150779,	0.0495053008198738,	0.0517804585397243,	0.0574913658201694,	0.16249506175518,	-0.0487697757780551,	-0.0787021145224571,	-0.00216348143294453,	-0.0608168877661228,	-0.0298958271741867,	0.01635567471385,	-0.0461227744817733,	0.0305856335908174,	0.0290961004793643,	-0.00743323285132646,	0.0814830586314201,	-0.0594936162233352,	0.0111983465030789,	-0.0425775572657585,	-0.0233691595494747,	0.121487066149711,	0.0972391739487648,	-0.0154639258980751,	-0.0737960413098335,	-0.0565374121069908,	0.0120302997529506,	0.0137820756062865,	-0.0953693091869354,	0.0816376730799674,	-0.0694323033094406,	0.116399683058261,	-0.0247827656567096,	0.0196323115378618,	-0.0610970854759216,	-0.0229960456490516,	-0.0613592714071273,	-0.114576928317546,	0.0892337411642074,	0.121864236891269,	-0.0470762252807617,	-0.0389967449009418,	0.021712964400649,	-0.0813363939523696,	0.0373265631496906,	-0.150306716561317,	0.0642525106668472,	0.135983258485794,	0.0688372030854225,	0.0408986844122409,	-0.0666057020425796,	-0.052033394575119,	0.0568793676793575,	0.198605373501777,	-0.0217735134065151,	0.0715500712394714,	0.0484219826757907,	0.00727933505550026,	0.0643675029277801,	-0.0609004497528076,	-0.04964504763484,	0.00852535851299762,	-0.028372649103403,	0.0909937396645545,	-0.0217958558350801,	-0.10613040626049,	-0.0291943475604057,	0.0866256728768348,	-0.0310414247214794,	-0.0432300902903079,	-0.0595710650086402,	0.0590251348912715,	-0.026924418285489,	0.0798712149262428,	-0.0137020144611597,	-0.0937829464673995,	0.111413322389125,	0.0827643871307373,	-0.00974243972450494,	-0.0427706763148307,	0.0317117422819137,	-0.0245123878121376,	0.108530312776565,	0.13225170969963,	0.0963571444153785,	-0.00222644046880304,	0.0871281251311302,	-0.0073603824712336,	0.0154103990644216,	-0.0766277089715003,	-0.0773948729038238,	-0.0101083805784583,	0.0651441663503646,	0.0560540184378623,	0.00188118661753833,	0.0244318712502717,	0.0848799124360084,	0.117260180413722,	-0.0937176272273063,	0.112791895866394,	-0.0803532600402832,	0.0208731666207313,	-0.00237029371783137,	0.000297243939712643,	0.082167737185955,	0.0833735913038253,	-0.0694164410233497,	0.0993969216942787,	-0.012660645879805,	-0.0913171395659446,	-0.0478707626461982,	-0.0541348680853843,	-0.0029597976244986,	-0.0753650888800621,	-0.0163801778107881,	0.122795894742012,	-0.0274831466376781,	0.00903336610645055,	-0.0460238233208656,	-0.0761404708027839,	-0.137794896960258,	-0.0148855289444327,	-0.0990591123700141,	0.00696144299581646,	0.00619947025552392,	0.0504354685544967,	0.0992794558405876,	-0.0511560700833797,	-0.123534463346004,	-0.0746822580695152,	-0.153937250375747,	0.0511274337768554,	-0.089261382818222,	-0.00112737482413649,	-0.0274824146181344},
